\data\
ngram 1=46
ngram 2=1493
ngram 3=21164

\1-grams:
-1.6627578	</s>	0.0
-1.6627578	<s>	0.0
-1.6627578	aɪ	0.0
-1.6627578	aʊ	0.0
-1.6627578	b	0.0
-1.6627578	d	0.0
-1.6627578	eɪ	0.0
-1.6627578	f	0.0
-1.6627578	h	0.0
-1.6627578	i	0.0
-1.6627578	iə	0.0
-1.6627578	j	0.0
-1.6627578	k	0.0
-1.6627578	l	0.0
-1.6627578	m	0.0
-1.6627578	n	0.0
-1.6627578	o	0.0
-1.6627578	oʊ	0.0
-1.6627578	p	0.0
-1.6627578	s	0.0
-1.6627578	t	0.0
-1.6627578	uː	0.0
-1.6627578	v	0.0
-1.6627578	w	0.0
-1.6627578	z	0.0
-1.6627578	æ	0.0
-1.6627578	ð	0.0
-1.6627578	ŋ	0.0
-1.6627578	ɑ	0.0
-1.6627578	ɑː	0.0
-1.6627578	ɔ	0.0
-1.6627578	ɔɪ	0.0
-1.6627578	ɔː	0.0
-1.6627578	ə	0.0
-1.6627578	ɚ	0.0
-1.6627578	ɛ	0.0
-1.6627578	ɡ	0.0
-1.6627578	ɪ	0.0
-1.6627578	ɹ	0.0
-1.6627578	ɾ	0.0
-1.6627578	ʃ	0.0
-1.6627578	ʊ	0.0
-1.6627578	ʊɹ	0.0
-1.6627578	ʌ	0.0
-1.6627578	ʒ	0.0
-1.6627578	θ	0.0

\2-grams:
-4.74e-05	</s> <s>	-3.952308
-0.3018868	<s> <s>	-2.6860321
-1.4073993	<s> aɪ	-2.6860321
-2.8425409	<s> aʊ	-2.6860321
-1.5342364	<s> b	-2.6860321
-1.9344942	<s> d	-2.6860321
-3.4904804	<s> eɪ	-2.6860321
-2.0067408	<s> f	-2.6860321
-1.3480042	<s> h	-2.6860321
-2.7126003	<s> i	-2.6860321
-1.7996872	<s> j	-2.6860321
-2.1245299	<s> k	-2.6860321
-2.1025442	<s> l	-2.6860321
-1.8167934	<s> m	-2.6860321
-1.789142	<s> n	-2.6860321
-3.9979135	<s> o	-2.6860321
-2.2019079	<s> oʊ	-2.6860321
-2.1213201	<s> p	-2.6860321
-1.7079326	<s> s	-2.6860321
-2.0320264	<s> t	-2.6860321
-2.7947757	<s> v	-2.6860321
-1.3357818	<s> w	-2.6860321
-3.9979135	<s> z	-2.6860321
-1.3880621	<s> æ	-2.6860321
-1.096232	<s> ð	-2.6860321
-3.0838445	<s> ɑ	-2.6860321
-2.7252612	<s> ɑː	-2.6860321
-2.1905089	<s> ɔ	-2.6860321
-3.3095366	<s> ɔː	-2.6860321
-1.9141778	<s> ə	-2.6860321
-3.4214473	<s> ɚ	-2.6860321
-2.3861518	<s> ɛ	-2.6860321
-2.2774055	<s> ɡ	-2.6860321
-1.4481866	<s> ɪ	-2.6860321
-2.4229762	<s> ɹ	-2.6860321
-1.9282989	<s> ʃ	-2.6860321
-2.5569665	<s> ʌ	-2.6860321
-2.676692	<s> θ	-2.6860321
-2.2521146	aɪ </s>	-2.5352292
-2.5046209	aɪ aɪ	-2.5352292
-3.1794572	aɪ aʊ	-2.5352292
-1.7166179	aɪ b	-2.5352292
-0.9613916	aɪ d	-2.5352292
-3.4407468	aɪ eɪ	-2.5352292
-1.427456	aɪ f	-2.5352292
-1.3511584	aɪ h	-2.5352292
-3.0909511	aɪ i	-2.5352292
-2.623214	aɪ j	-2.5352292
-1.2195022	aɪ k	-2.5352292
-1.1804079	aɪ l	-2.5352292
-1.2041666	aɪ m	-2.5352292
-1.0389214	aɪ n	-2.5352292
-3.3592993	aɪ o	-2.5352292
-2.3420487	aɪ oʊ	-2.5352292
-1.8762452	aɪ p	-2.5352292
-1.2376382	aɪ s	-2.5352292
-0.9584309	aɪ t	-2.5352292
-1.5157956	aɪ v	-2.5352292
-1.3607386	aɪ w	-2.5352292
-1.4095829	aɪ z	-2.5352292
-1.6119482	aɪ æ	-2.5352292
-1.6422107	aɪ ð	-2.5352292
-2.9546309	aɪ ŋ	-2.5352292
-3.3592993	aɪ ɑ	-2.5352292
-3.0526551	aɪ ɑː	-2.5352292
-2.5046209	aɪ ɔ	-2.5352292
-3.1794572	aɪ ɔː	-2.5352292
-1.5606256	aɪ ə	-2.5352292
-1.511557	aɪ ɚ	-2.5352292
-2.2759673	aɪ ɛ	-2.5352292
-1.9837547	aɪ ɡ	-2.5352292
-1.8299625	aɪ ɪ	-2.5352292
-1.9594263	aɪ ɹ	-2.5352292
-1.8713886	aɪ ɾ	-2.5352292
-1.8191234	aɪ ʃ	-2.5352292
-2.2638772	aɪ ʌ	-2.5352292
-2.0230108	aɪ θ	-2.5352292
-1.9052993	aʊ </s>	-2.1255716
-2.1662306	aʊ aɪ	-2.1255716
-2.2079114	aʊ b	-2.1255716
-1.3878874	aʊ d	-2.1255716
-3.4308181	aʊ eɪ	-2.1255716
-2.2381011	aʊ f	-2.1255716
-1.8704157	aʊ h	-2.1255716
-2.9197503	aʊ i	-2.1255716
-2.3242707	aʊ j	-2.1255716
-1.9936091	aʊ k	-2.1255716
-1.9847965	aʊ l	-2.1255716
-1.8910079	aʊ m	-2.1255716
-0.5778029	aʊ n	-2.1255716
-2.8504774	aʊ oʊ	-2.1255716
-2.6491503	aʊ p	-2.1255716
-1.2878033	aʊ s	-2.1255716
-0.6020482	aʊ t	-2.1255716
-3.237422	aʊ v	-2.1255716
-1.8198465	aʊ w	-2.1255716
-1.7051455	aʊ z	-2.1255716
-1.9276588	aʊ æ	-2.1255716
-1.8023046	aʊ ð	-2.1255716
-2.512123	aʊ ŋ	-2.1255716
-2.3855906	aʊ ɑ	-2.1255716
-3.237422	aʊ ɑː	-2.1255716
-2.4836953	aʊ ɔ	-2.1255716
-2.140512	aʊ ə	-2.1255716
-0.9053308	aʊ ɚ	-2.1255716
-1.6828193	aʊ ɛ	-2.1255716
-2.3056146	aʊ ɡ	-2.1255716
-1.9761591	aʊ ɪ	-2.1255716
-2.512123	aʊ ɹ	-2.1255716
-1.4393759	aʊ ɾ	-2.1255716
-2.0932371	aʊ ʃ	-2.1255716
-2.7382506	aʊ ʌ	-2.1255716
-1.9126253	aʊ θ	-2.1255716
-2.8083098	b </s>	-2.4841981
-1.1484475	b aɪ	-2.4841981
-1.4760919	b aʊ	-2.4841981
-3.5149327	b b	-2.4841981
-1.8499775	b d	-2.4841981
-2.0470781	b eɪ	-2.4841981
-3.6431004	b f	-2.4841981
-2.9964188	b h	-2.4841981
-0.9124025	b i	-2.4841981
-2.8083098	b iə	-2.4841981
-2.0108396	b j	-2.4841981
-3.8257226	b k	-2.4841981
-0.9582551	b l	-2.4841981
-2.830686	b m	-2.4841981
-3.6431004	b n	-2.4841981
-2.3018579	b o	-2.4841981
-1.7671758	b oʊ	-2.4841981
-3.4160968	b p	-2.4841981
-1.9741863	b s	-2.4841981
-2.8792256	b t	-2.4841981
-2.5173522	b uː	-2.4841981
-3.1574214	b v	-2.4841981
-3.1112404	b w	-2.4841981
-2.1121938	b z	-2.4841981
-1.3403561	b æ	-2.4841981
-3.1574214	b ð	-2.4841981
-2.1488212	b ɑ	-2.4841981
-1.6261294	b ɑː	-2.4841981
-2.3757536	b ɔ	-2.4841981
-1.8746722	b ɔɪ	-2.4841981
-2.6315868	b ɔː	-2.4841981
-1.0396652	b ə	-2.4841981
-1.5500448	b ɚ	-2.4841981
-1.3293591	b ɛ	-2.4841981
-3.8257226	b ɡ	-2.4841981
-0.9413392	b ɪ	-2.4841981
-1.1669742	b ɹ	-2.4841981
-3.6431004	b ʃ	-2.4841981
-2.1210652	b ʊ	-2.4841981
-3.8257226	b ʊɹ	-2.4841981
-0.9110189	b ʌ	-2.4841981
-3.8257226	b θ	-2.4841981
-1.6439168	d </s>	-2.9598065
-1.8389765	d aɪ	-2.9598065
-1.8506011	d aʊ	-2.9598065
-1.4484099	d b	-2.9598065
-1.7142165	d d	-2.9598065
-1.8459139	d eɪ	-2.9598065
-1.6488245	d f	-2.9598065
-1.3308394	d h	-2.9598065
-1.652791	d i	-2.9598065
-2.3553926	d iə	-2.9598065
-2.0419046	d j	-2.9598065
-1.7691916	d k	-2.9598065
-1.6285748	d l	-2.9598065
-1.5733554	d m	-2.9598065
-1.5519081	d n	-2.9598065
-2.4232047	d o	-2.9598065
-1.8969756	d oʊ	-2.9598065
-1.8474706	d p	-2.9598065
-1.4527874	d s	-2.9598065
-1.3918957	d t	-2.9598065
-1.7258459	d uː	-2.9598065
-2.3262564	d v	-2.9598065
-1.4422317	d w	-2.9598065
-1.6537883	d z	-2.9598065
-1.4661913	d æ	-2.9598065
-1.2174405	d ð	-2.9598065
-2.4663816	d ɑ	-2.9598065
-2.2077853	d ɑː	-2.9598065
-1.9031367	d ɔ	-2.9598065
-3.8198702	d ɔɪ	-2.9598065
-2.8862605	d ɔː	-2.9598065
-1.1017824	d ə	-2.9598065
-1.6078778	d ɚ	-2.9598065
-1.725257	d ɛ	-2.9598065
-1.9858899	d ɡ	-2.9598065
-1.0498359	d ɪ	-2.9598065
-1.4946538	d ɹ	-2.9598065
-2.1652459	d ʃ	-2.9598065
-4.3066428	d ʊ	-2.9598065
-2.8013404	d ʊɹ	-2.9598065
-1.5716992	d ʌ	-2.9598065
-1.1010827	d ʒ	-2.9598065
-2.3975558	d θ	-2.9598065
-1.9173616	eɪ </s>	-2.4354462
-2.5207122	eɪ aɪ	-2.4354462
-2.8652079	eɪ aʊ	-2.4354462
-1.4789541	eɪ b	-2.4354462
-1.0293876	eɪ d	-2.4354462
-3.350016	eɪ eɪ	-2.4354462
-1.876529	eɪ f	-2.4354462
-1.7197153	eɪ h	-2.4354462
-3.001294	eɪ i	-2.4354462
-2.5207122	eɪ j	-2.4354462
-1.0268376	eɪ k	-2.4354462
-1.4578717	eɪ l	-2.4354462
-1.0818812	eɪ m	-2.4354462
-1.0009294	eɪ n	-2.4354462
-3.0896038	eɪ oʊ	-2.4354462
-1.6836485	eɪ p	-2.4354462
-1.076147	eɪ s	-2.4354462
-1.0276859	eɪ t	-2.4354462
-3.7657656	eɪ uː	-2.4354462
-1.3892735	eɪ v	-2.4354462
-1.56348	eɪ w	-2.4354462
-1.4345031	eɪ z	-2.4354462
-1.9273558	eɪ æ	-2.4354462
-1.8856169	eɪ ð	-2.4354462
-3.2005769	eɪ ŋ	-2.4354462
-2.2826263	eɪ ɑ	-2.4354462
-2.7393178	eɪ ɑː	-2.4354462
-2.2603001	eɪ ɔ	-2.4354462
-3.1415554	eɪ ɔː	-2.4354462
-2.17496	eɪ ə	-2.4354462
-2.5770659	eɪ ɚ	-2.4354462
-2.592376	eɪ ɛ	-2.4354462
-2.2122777	eɪ ɡ	-2.4354462
-1.6817299	eɪ ɪ	-2.4354462
-2.4156077	eɪ ɹ	-2.4354462
-1.3805751	eɪ ɾ	-2.4354462
-1.190014	eɪ ʃ	-2.4354462
-2.253106	eɪ ʌ	-2.4354462
-2.3396706	eɪ ʒ	-2.4354462
-2.2188214	eɪ θ	-2.4354462
-1.930294	f </s>	-2.5186102
-1.3040951	f aɪ	-2.5186102
-1.8198706	f aʊ	-2.5186102
-2.2628007	f b	-2.5186102
-2.5644701	f d	-2.5186102
-1.5187254	f eɪ	-2.5186102
-2.3192076	f f	-2.5186102
-1.9470113	f h	-2.5186102
-1.5987782	f i	-2.5186102
-3.3611826	f iə	-2.5186102
-1.5825242	f j	-2.5186102
-2.3998754	f k	-2.5186102
-1.2076884	f l	-2.5186102
-2.5528545	f m	-2.5186102
-2.4421625	f n	-2.5186102
-1.4015077	f o	-2.5186102
-2.1825348	f oʊ	-2.5186102
-2.6859253	f p	-2.5186102
-2.1190154	f s	-2.5186102
-1.1393307	f t	-2.5186102
-2.312566	f uː	-2.5186102
-3.6703003	f v	-2.5186102
-1.9141963	f w	-2.5186102
-2.9037309	f z	-2.5186102
-1.4072073	f æ	-2.5186102
-1.8198706	f ð	-2.5186102
-2.2076771	f ɑ	-2.5186102
-1.5800767	f ɑː	-2.5186102
-1.4659151	f ɔ	-2.5186102
-3.6703003	f ɔɪ	-2.5186102
-1.0101983	f ɔː	-2.5186102
-1.2832719	f ə	-2.5186102
-1.2663545	f ɚ	-2.5186102
-1.2857434	f ɛ	-2.5186102
-2.7717235	f ɡ	-2.5186102
-1.0833832	f ɪ	-2.5186102
-0.9473016	f ɹ	-2.5186102
-2.4333692	f ʃ	-2.5186102
-1.9115705	f ʊ	-2.5186102
-2.1825348	f ʌ	-2.5186102
-3.0561646	f θ	-2.5186102
-1.9188022	h aɪ	-2.8297861
-1.4130612	h aʊ	-2.8297861
-2.0323981	h eɪ	-2.8297861
-0.738629	h i	-2.8297861
-3.0789647	h iə	-2.8297861
-2.2034382	h j	-2.8297861
-3.6632401	h l	-2.8297861
-3.231281	h o	-2.8297861
-1.4935584	h oʊ	-2.8297861
-4.0276571	h t	-2.8297861
-1.3714493	h uː	-2.8297861
-4.0276571	h v	-2.8297861
-0.7273349	h æ	-2.8297861
-1.7221215	h ɑ	-2.8297861
-2.2532444	h ɑː	-2.8297861
-2.2208959	h ɔ	-2.8297861
-4.0276571	h ɔɪ	-2.8297861
-2.2208959	h ɔː	-2.8297861
-0.80593	h ə	-2.8297861
-3.1123326	h ɚ	-2.8297861
-1.4130612	h ɛ	-2.8297861
-0.6295831	h ɪ	-2.8297861
-2.7113871	h ʊ	-2.8297861
-1.7513266	h ʌ	-2.8297861
-1.4791994	i </s>	-2.7561605
-2.1544547	i aɪ	-2.7561605
-2.7468205	i aʊ	-2.7561605
-1.5758413	i b	-2.7561605
-1.2168116	i d	-2.7561605
-2.4668527	i eɪ	-2.7561605
-1.4873079	i f	-2.7561605
-1.2662478	i h	-2.7561605
-2.6966958	i i	-2.7561605
-2.1306691	i j	-2.7561605
-1.2960638	i k	-2.7561605
-1.3968613	i l	-2.7561605
-1.3471283	i m	-2.7561605
-1.300604	i n	-2.7561605
-2.399802	i oʊ	-2.7561605
-1.3954395	i p	-2.7561605
-1.17385	i s	-2.7561605
-1.1659682	i t	-2.7561605
-1.4535755	i v	-2.7561605
-1.1565859	i w	-2.7561605
-1.3109964	i z	-2.7561605
-1.4050072	i æ	-2.7561605
-1.532879	i ð	-2.7561605
-3.1061065	i ŋ	-2.7561605
-2.7468205	i ɑ	-2.7561605
-2.6033406	i ɑː	-2.7561605
-2.100855	i ɔ	-2.7561605
-4.0864799	i ɔɪ	-2.7561605
-2.6966958	i ɔː	-2.7561605
-1.5076541	i ə	-2.7561605
-2.5883296	i ɚ	-2.7561605
-1.9587725	i ɛ	-2.7561605
-1.7797308	i ɡ	-2.7561605
-1.3760083	i ɪ	-2.7561605
-1.7330423	i ɹ	-2.7561605
-2.0984604	i ɾ	-2.7561605
-1.9587725	i ʃ	-2.7561605
-1.741357	i ʌ	-2.7561605
-3.4103181	i ʒ	-2.7561605
-2.046743	i θ	-2.7561605
-1.8210789	iə </s>	-1.4461228
-2.7051883	iə aɪ	-1.4461228
-2.0394592	iə b	-1.4461228
-2.1002804	iə d	-1.4461228
-2.7051883	iə eɪ	-1.4461228
-2.2555881	iə f	-1.4461228
-1.8568371	iə h	-1.4461228
-2.7051883	iə i	-1.4461228
-2.7051883	iə j	-1.4461228
-1.9386189	iə k	-1.4461228
-1.0502016	iə l	-1.4461228
-1.4660864	iə m	-1.4461228
-0.41049	iə n	-1.4461228
-2.7051883	iə oʊ	-1.4461228
-2.499642	iə p	-1.4461228
-0.8417089	iə s	-1.4461228
-1.8210789	iə t	-1.4461228
-2.1710285	iə w	-1.4461228
-1.7286694	iə z	-1.4461228
-2.3606926	iə æ	-1.4461228
-2.1710285	iə ð	-1.4461228
-1.9861188	iə ŋ	-1.4461228
-2.7051883	iə ɑ	-1.4461228
-2.7051883	iə ə	-1.4461228
-2.1710285	iə ɪ	-1.4461228
-0.8600902	iə ɹ	-1.4461228
-2.1710285	iə ɾ	-1.4461228
-2.3606926	iə ʃ	-1.4461228
-1.549373	iə ʌ	-1.4461228
-2.2555881	iə θ	-1.4461228
-3.5454424	j eɪ	-2.4335921
-2.1524159	j i	-2.4335921
-2.8832751	j l	-2.4335921
-1.82322	j o	-2.4335921
-2.6322911	j oʊ	-2.4335921
-0.1942382	j uː	-2.4335921
-2.7650351	j æ	-2.4335921
-2.2206457	j ɑ	-2.4335921
-2.4485324	j ɑː	-2.4335921
-2.1652312	j ɔ	-2.4335921
-2.6322911	j ɔː	-2.4335921
-2.1046317	j ə	-2.4335921
-1.961394	j ɚ	-2.4335921
-1.1213779	j ɛ	-2.4335921
-1.5837248	j ɪ	-2.4335921
-1.2536713	j ʊ	-2.4335921
-0.9921664	j ʊɹ	-2.4335921
-1.4703519	j ʌ	-2.4335921
-1.9579385	k </s>	-2.6839921
-1.9661769	k aɪ	-2.6839921
-1.8918289	k aʊ	-2.6839921
-2.2296444	k b	-2.6839921
-2.4673673	k d	-2.6839921
-1.4336517	k eɪ	-2.6839921
-2.1861313	k f	-2.6839921
-1.850097	k h	-2.6839921
-1.8763394	k i	-2.6839921
-1.6962481	k j	-2.6839921
-2.3522128	k k	-2.6839921
-1.188493	k l	-2.6839921
-2.0905134	k m	-2.6839921
-2.1966078	k n	-2.6839921
-1.8866041	k o	-2.6839921
-1.9060769	k oʊ	-2.6839921
-2.5795941	k p	-2.6839921
-1.0576852	k s	-2.6839921
-0.9857024	k t	-2.6839921
-2.4876116	k uː	-2.6839921
-3.1764882	k v	-2.6839921
-1.2682387	k w	-2.6839921
-3.2498399	k z	-2.6839921
-1.1609387	k æ	-2.6839921
-1.7496583	k ð	-2.6839921
-2.2822919	k ɑ	-2.6839921
-1.4725581	k ɑː	-2.6839921
-1.6787369	k ɔ	-2.6839921
-3.085487	k ɔɪ	-2.6839921
-2.2780076	k ɔː	-2.6839921
-0.9916146	k ə	-2.6839921
-1.9896731	k ɚ	-2.6839921
-1.8360039	k ɛ	-2.6839921
-2.6341002	k ɡ	-2.6839921
-1.2105527	k ɪ	-2.6839921
-1.2944408	k ɹ	-2.6839921
-1.8344659	k ʃ	-2.6839921
-1.6159273	k ʊ	-2.6839921
-1.1567265	k ʌ	-2.6839921
-2.9878637	k θ	-2.6839921
-1.8139905	l </s>	-2.8129134
-1.2474679	l aɪ	-2.8129134
-2.1564925	l aʊ	-2.8129134
-1.7893884	l b	-2.8129134
-1.1481982	l d	-2.8129134
-1.3999121	l eɪ	-2.8129134
-1.5058978	l f	-2.8129134
-1.8049724	l h	-2.8129134
-0.8695874	l i	-2.8129134
-2.6142896	l iə	-2.8129134
-2.1326521	l j	-2.8129134
-1.8712693	l k	-2.8129134
-2.1770212	l l	-2.8129134
-1.7262765	l m	-2.8129134
-2.1181352	l n	-2.8129134
-2.6016886	l o	-2.8129134
-1.5195586	l oʊ	-2.8129134
-1.904884	l p	-2.8129134
-1.6275394	l s	-2.8129134
-1.4878491	l t	-2.8129134
-1.8211365	l uː	-2.8129134
-2.0847771	l v	-2.8129134
-1.7068611	l w	-2.8129134
-1.6255666	l z	-2.8129134
-1.2532754	l æ	-2.8129134
-1.6519392	l ð	-2.8129134
-2.4380594	l ɑ	-2.8129134
-2.0520444	l ɑː	-2.8129134
-1.6409253	l ɔ	-2.8129134
-2.7226407	l ɔɪ	-2.8129134
-2.3293268	l ɔː	-2.8129134
-1.3415757	l ə	-2.8129134
-1.9796109	l ɚ	-2.8129134
-1.2990349	l ɛ	-2.8129134
-2.1454935	l ɡ	-2.8129134
-1.0412174	l ɪ	-2.8129134
-2.0216067	l ɹ	-2.8129134
-3.3022816	l ɾ	-2.8129134
-2.4644057	l ʃ	-2.8129134
-1.8865532	l ʊ	-2.8129134
-3.8514611	l ʊɹ	-2.8129134
-1.4849917	l ʌ	-2.8129134
-2.3935541	l θ	-2.8129134
-1.6662847	m </s>	-2.7199171
-1.0879561	m aɪ	-2.7199171
-2.0801117	m aʊ	-2.7199171
-1.5424923	m b	-2.7199171
-1.6209854	m d	-2.7199171
-1.3152956	m eɪ	-2.7199171
-1.8586432	m f	-2.7199171
-1.7576387	m h	-2.7199171
-1.1777018	m i	-2.7199171
-3.5624895	m iə	-2.7199171
-2.0587943	m j	-2.7199171
-2.2957078	m k	-2.7199171
-1.9366913	m l	-2.7199171
-2.202717	m m	-2.7199171
-2.1208031	m n	-2.7199171
-1.6893556	m o	-2.7199171
-1.5259166	m oʊ	-2.7199171
-1.294124	m p	-2.7199171
-1.5807361	m s	-2.7199171
-1.6515581	m t	-2.7199171
-2.0611119	m uː	-2.7199171
-3.056439	m v	-2.7199171
-1.7126781	m w	-2.7199171
-1.6653496	m z	-2.7199171
-1.1332499	m æ	-2.7199171
-1.6295031	m ð	-2.7199171
-1.887266	m ɑ	-2.7199171
-2.1426739	m ɑː	-2.7199171
-1.9015121	m ɔ	-2.7199171
-3.6432763	m ɔɪ	-2.7199171
-2.2059486	m ɔː	-2.7199171
-1.0941803	m ə	-2.7199171
-1.9526865	m ɚ	-2.7199171
-1.3241471	m ɛ	-2.7199171
-2.3694266	m ɡ	-2.7199171
-1.0138259	m ɪ	-2.7199171
-2.3647259	m ɹ	-2.7199171
-2.4641076	m ʃ	-2.7199171
-3.5624895	m ʊɹ	-2.7199171
-1.2389672	m ʌ	-2.7199171
-2.1102673	m θ	-2.7199171
-1.7363408	n </s>	-3.0675725
-1.8895097	n aɪ	-3.0675725
-1.9391622	n aʊ	-3.0675725
-1.9482746	n b	-3.0675725
-0.6074815	n d	-3.0675725
-2.0430918	n eɪ	-3.0675725
-1.7909853	n f	-3.0675725
-1.5487726	n h	-3.0675725
-1.6377321	n i	-3.0675725
-2.5193838	n iə	-3.0675725
-2.1329158	n j	-3.0675725
-4.1061202	n k	-3.0675725
-1.6890754	n l	-3.0675725
-1.907995	n m	-3.0675725
-2.2963188	n n	-3.0675725
-3.3599077	n o	-3.0675725
-1.5290412	n oʊ	-3.0675725
-2.1582967	n p	-3.0675725
-1.1688047	n s	-3.0675725
-0.8838767	n t	-3.0675725
-2.1670977	n uː	-3.0675725
-2.2697821	n v	-3.0675725
-1.6468361	n w	-3.0675725
-1.6255178	n z	-3.0675725
-1.6306577	n æ	-3.0675725
-1.2889275	n ð	-3.0675725
-2.9306693	n ɑ	-3.0675725
-1.4862144	n ɑː	-3.0675725
-2.310221	n ɔ	-3.0675725
-3.3405464	n ɔɪ	-3.0675725
-2.4247291	n ɔː	-3.0675725
-1.3963491	n ə	-3.0675725
-1.9801091	n ɚ	-3.0675725
-1.7458659	n ɛ	-3.0675725
-4.4144088	n ɡ	-3.0675725
-1.3074772	n ɪ	-3.0675725
-2.2478224	n ɹ	-3.0675725
-4.4144088	n ɾ	-3.0675725
-2.0676384	n ʃ	-3.0675725
-4.4144088	n ʊ	-3.0675725
-3.8600081	n ʊɹ	-3.0675725
-1.5781914	n ʌ	-3.0675725
-2.4111516	n θ	-3.0675725
-0.0001958	o ɹ	-3.3364597
-1.7749002	oʊ </s>	-2.3956176
-1.8472823	oʊ aɪ	-2.3956176
-2.6472739	oʊ aʊ	-2.3956176
-1.585544	oʊ b	-2.3956176
-1.3646259	oʊ d	-2.3956176
-3.5321687	oʊ eɪ	-2.3956176
-1.8168672	oʊ f	-2.3956176
-1.5872718	oʊ h	-2.3956176
-2.7114209	oʊ i	-2.3956176
-2.106739	oʊ j	-2.3956176
-1.3793904	oʊ k	-2.3956176
-0.8933138	oʊ l	-2.3956176
-1.2000388	oʊ m	-2.3956176
-0.8993098	oʊ n	-2.3956176
-2.5913938	oʊ oʊ	-2.3956176
-1.4082174	oʊ p	-2.3956176
-1.1529947	oʊ s	-2.3956176
-1.3847874	oʊ t	-2.3956176
-1.3231246	oʊ v	-2.3956176
-1.5821087	oʊ w	-2.3956176
-1.2036024	oʊ z	-2.3956176
-1.7749002	oʊ æ	-2.3956176
-1.4983461	oʊ ð	-2.3956176
-2.4322194	oʊ ŋ	-2.3956176
-3.3011351	oʊ ɑ	-2.3956176
-2.9513395	oʊ ɑː	-2.3956176
-2.1551462	oʊ ɔ	-2.3956176
-3.0398456	oʊ ɔː	-2.3956176
-1.9380546	oʊ ə	-2.3956176
-2.3159927	oʊ ɚ	-2.3956176
-2.30682	oʊ ɛ	-2.3956176
-2.1615949	oʊ ɡ	-2.3956176
-1.3110433	oʊ ɪ	-2.3956176
-2.1242656	oʊ ɹ	-2.3956176
-1.9008644	oʊ ɾ	-2.3956176
-1.8198147	oʊ ʃ	-2.3956176
-2.1242656	oʊ ʌ	-2.3956176
-2.9933418	oʊ ʒ	-2.3956176
-1.8227822	oʊ θ	-2.3956176
-2.1247277	p </s>	-2.496732
-1.8235069	p aɪ	-2.496732
-1.9741231	p aʊ	-2.496732
-2.2816799	p b	-2.496732
-2.4395275	p d	-2.496732
-1.5234798	p eɪ	-2.496732
-2.2944705	p f	-2.496732
-2.1335991	p h	-2.496732
-1.3411697	p i	-2.496732
-2.1335991	p iə	-2.496732
-2.0268643	p j	-2.496732
-2.5647291	p k	-2.496732
-0.9823383	p l	-2.496732
-2.3281992	p m	-2.496732
-2.6160131	p n	-2.496732
-1.8821536	p o	-2.496732
-1.6029002	p oʊ	-2.496732
-2.7995641	p p	-2.496732
-1.4937302	p s	-2.496732
-1.2284923	p t	-2.496732
-2.6741741	p uː	-2.496732
-3.6556343	p v	-2.496732
-2.0484195	p w	-2.496732
-3.1699553	p z	-2.496732
-1.2718458	p æ	-2.496732
-1.9270989	p ð	-2.496732
-1.6887574	p ɑ	-2.496732
-1.2755582	p ɑː	-2.496732
-2.1519046	p ɔ	-2.496732
-2.0711006	p ɔɪ	-2.496732
-3.0439586	p ɔː	-2.496732
-1.134145	p ə	-2.496732
-1.2900905	p ɚ	-2.496732
-1.3455278	p ɛ	-2.496732
-3.1237743	p ɡ	-2.496732
-1.1363942	p ɪ	-2.496732
-0.8248734	p ɹ	-2.496732
-2.3212406	p ʃ	-2.496732
-1.7170101	p ʊ	-2.496732
-2.1519046	p ʊɹ	-2.496732
-1.8126713	p ʌ	-2.496732
-2.8917595	p θ	-2.496732
-1.6429186	s </s>	-2.9117155
-1.6196108	s aɪ	-2.9117155
-2.4822207	s aʊ	-2.9117155
-1.9180557	s b	-2.9117155
-2.1715163	s d	-2.9117155
-1.6657841	s eɪ	-2.9117155
-1.8857146	s f	-2.9117155
-1.8421945	s h	-2.9117155
-1.355438	s i	-2.9117155
-3.8436142	s iə	-2.9117155
-2.421312	s j	-2.9117155
-1.4111415	s k	-2.9117155
-1.5929999	s l	-2.9117155
-1.7221095	s m	-2.9117155
-2.1037409	s n	-2.9117155
-2.7431826	s o	-2.9117155
-1.4731682	s oʊ	-2.9117155
-1.3368817	s p	-2.9117155
-1.9036093	s s	-2.9117155
-0.6360251	s t	-2.9117155
-2.0941926	s uː	-2.9117155
-2.9338499	s v	-2.9117155
-1.5910189	s w	-2.9117155
-4.25324	s z	-2.9117155
-1.4754343	s æ	-2.9117155
-1.7489854	s ð	-2.9117155
-2.9023755	s ɑ	-2.9117155
-2.3891066	s ɑː	-2.9117155
-1.907688	s ɔ	-2.9117155
-3.5849388	s ɔɪ	-2.9117155
-2.5530871	s ɔː	-2.9117155
-1.0931263	s ə	-2.9117155
-1.9384633	s ɚ	-2.9117155
-1.0953301	s ɛ	-2.9117155
-2.3798929	s ɡ	-2.9117155
-1.1981224	s ɪ	-2.9117155
-2.297137	s ɹ	-2.9117155
-2.6163419	s ʃ	-2.9117155
-3.8436142	s ʊ	-2.9117155
-4.25324	s ʊɹ	-2.9117155
-1.2111121	s ʌ	-2.9117155
-2.8281357	s θ	-2.9117155
-1.6559368	t </s>	-3.0704777
-1.6244611	t aɪ	-3.0704777
-2.3554437	t aʊ	-3.0704777
-1.6771478	t b	-3.0704777
-1.8192956	t d	-3.0704777
-1.7224914	t eɪ	-3.0704777
-1.7376003	t f	-3.0704777
-1.4097673	t h	-3.0704777
-1.8677085	t i	-3.0704777
-4.1012123	t iə	-3.0704777
-2.0674759	t j	-3.0704777
-1.8896468	t k	-3.0704777
-1.5926975	t l	-3.0704777
-1.6860163	t m	-3.0704777
-1.9185441	t n	-3.0704777
-2.4712367	t o	-3.0704777
-2.0282275	t oʊ	-3.0704777
-2.0180283	t p	-3.0704777
-1.2305938	t s	-3.0704777
-1.5926975	t t	-3.0704777
-1.8376551	t uː	-3.0704777
-2.8134105	t v	-3.0704777
-1.3280681	t w	-3.0704777
-3.9219159	t z	-3.0704777
-1.488817	t æ	-3.0704777
-1.3280681	t ð	-3.0704777
-2.503639	t ɑ	-3.0704777
-2.280573	t ɑː	-3.0704777
-1.9070372	t ɔ	-3.0704777
-3.5201607	t ɔɪ	-3.0704777
-2.7256503	t ɔː	-3.0704777
-0.8024732	t ə	-3.0704777
-1.5261399	t ɚ	-3.0704777
-1.550427	t ɛ	-3.0704777
-2.2657331	t ɡ	-3.0704777
-1.2186498	t ɪ	-3.0704777
-1.295802	t ɹ	-3.0704777
-1.0618863	t ʃ	-3.0704777
-1.5695773	t ʊ	-3.0704777
-3.9219159	t ʊɹ	-3.0704777
-1.6334398	t ʌ	-3.0704777
-2.5604658	t θ	-3.0704777
-1.5963915	uː </s>	-2.3079237
-2.1327776	uː aɪ	-2.3079237
-2.4648535	uː aʊ	-2.3079237
-1.7371778	uː b	-2.3079237
-1.1642302	uː d	-2.3079237
-2.3552576	uː eɪ	-2.3079237
-1.722831	uː f	-2.3079237
-1.3372636	uː h	-2.3079237
-2.9620814	uː i	-2.3079237
-1.8066262	uː j	-2.3079237
-1.4330513	uː k	-2.3079237
-1.2454643	uː l	-2.3079237
-1.0533336	uː m	-2.3079237
-1.0905256	uː n	-2.3079237
-2.4648535	uː oʊ	-2.3079237
-1.4599355	uː p	-2.3079237
-1.2085283	uː s	-2.3079237
-1.3349465	uː t	-2.3079237
-1.5619329	uː v	-2.3079237
-1.2530526	uː w	-2.3079237
-1.2686389	uː z	-2.3079237
-1.6928432	uː æ	-2.3079237
-1.5105357	uː ð	-2.3079237
-2.7679208	uː ŋ	-2.3079237
-1.9374589	uː ɑ	-2.3079237
-2.4807231	uː ɑː	-2.3079237
-2.2484591	uː ɔ	-2.3079237
-2.5321392	uː ɔː	-2.3079237
-1.5619329	uː ə	-2.3079237
-2.6342218	uː ɚ	-2.3079237
-2.0595239	uː ɛ	-2.3079237
-1.971116	uː ɡ	-2.3079237
-1.437418	uː ɪ	-2.3079237
-1.9421103	uː ɹ	-2.3079237
-1.629247	uː ɾ	-2.3079237
-1.8691063	uː ʃ	-2.3079237
-3.6382431	uː ʊ	-2.3079237
-2.1327776	uː ʌ	-2.3079237
-2.0130742	uː ʒ	-2.3079237
-1.7964763	uː θ	-2.3079237
-2.2752391	v </s>	-2.5525122
-1.8494462	v aɪ	-2.5525122
-2.19493	v aʊ	-2.5525122
-1.6161431	v b	-2.5525122
-1.3569334	v d	-2.5525122
-1.9291361	v eɪ	-2.5525122
-1.8561159	v f	-2.5525122
-1.2911897	v h	-2.5525122
-1.8984398	v i	-2.5525122
-2.5219039	v iə	-2.5525122
-1.7390034	v j	-2.5525122
-1.7029073	v k	-2.5525122
-1.5062394	v l	-2.5525122
-1.4473534	v m	-2.5525122
-1.7060675	v n	-2.5525122
-3.2488275	v o	-2.5525122
-2.2752391	v oʊ	-2.5525122
-1.8321455	v p	-2.5525122
-1.5246424	v s	-2.5525122
-1.7322134	v t	-2.5525122
-2.4288463	v v	-2.5525122
-1.6951058	v w	-2.5525122
-1.7140703	v z	-2.5525122
-1.6318969	v æ	-2.5525122
-0.8628055	v ð	-2.5525122
-2.6987855	v ɑ	-2.5525122
-2.2932503	v ɑː	-2.5525122
-2.0722553	v ɔ	-2.5525122
-2.0872521	v ɔɪ	-2.5525122
-3.0021952	v ɔː	-2.5525122
-1.0388003	v ə	-2.5525122
-0.9783777	v ɚ	-2.5525122
-1.2617086	v ɛ	-2.5525122
-1.9212563	v ɡ	-2.5525122
-1.0948058	v ɪ	-2.5525122
-1.5012629	v ɹ	-2.5525122
-2.6987855	v ʃ	-2.5525122
-1.9917541	v ʌ	-2.5525122
-2.4373044	v θ	-2.5525122
-4.0640316	w </s>	-2.89136
-1.2831851	w aɪ	-2.89136
-3.4223243	w aʊ	-2.89136
-1.2935262	w eɪ	-2.89136
-1.2335751	w i	-2.89136
-4.0640316	w iə	-2.89136
-2.735772	w l	-2.89136
-2.735772	w o	-2.89136
-2.4667883	w oʊ	-2.89136
-2.5665328	w uː	-2.89136
-2.5856349	w æ	-2.89136
-3.3054759	w ɑ	-2.89136
-2.0283665	w ɑː	-2.89136
-1.5091151	w ɔ	-2.89136
-4.0640316	w ɔɪ	-2.89136
-1.8545166	w ɔː	-2.89136
-1.0801269	w ə	-2.89136
-2.0861736	w ɚ	-2.89136
-0.9110512	w ɛ	-2.89136
-0.6143264	w ɪ	-2.89136
-1.3036092	w ʊ	-2.89136
-0.5795601	w ʌ	-2.89136
-1.3734095	z </s>	-2.678074
-1.6910934	z aɪ	-2.678074
-2.5063026	z aʊ	-2.678074
-1.462913	z b	-2.678074
-1.3840428	z d	-2.678074
-2.592833	z eɪ	-2.678074
-1.4329881	z f	-2.678074
-1.2389758	z h	-2.678074
-1.9486498	z i	-2.678074
-3.6014332	z iə	-2.678074
-1.9751156	z j	-2.678074
-1.5482181	z k	-2.678074
-1.633906	z l	-2.678074
-1.526763	z m	-2.678074
-1.418765	z n	-2.678074
-3.7007627	z o	-2.678074
-1.958639	z oʊ	-2.678074
-1.5989887	z p	-2.678074
-1.322893	z s	-2.678074
-1.3503955	z t	-2.678074
-3.1481149	z uː	-2.678074
-2.151321	z v	-2.678074
-1.2389758	z w	-2.678074
-4.0140965	z z	-2.678074
-1.228693	z æ	-2.678074
-1.2066781	z ð	-2.678074
-2.1739471	z ɑ	-2.678074
-2.3776201	z ɑː	-2.678074
-1.7544367	z ɔ	-2.678074
-4.0140965	z ɔɪ	-2.678074
-2.5513543	z ɔː	-2.678074
-1.0267744	z ə	-2.678074
-2.3883584	z ɚ	-2.678074
-1.8110073	z ɛ	-2.678074
-1.8983521	z ɡ	-2.678074
-1.1438339	z ɪ	-2.678074
-1.7506645	z ɹ	-2.678074
-1.9688634	z ʃ	-2.678074
-3.8297641	z ʊɹ	-2.678074
-1.3776316	z ʌ	-2.678074
-2.3619947	z θ	-2.678074
-4.229888	æ </s>	-3.0572164
-2.1456273	æ b	-3.0572164
-1.1198631	æ d	-3.0572164
-1.6139689	æ f	-3.0572164
-3.3793499	æ h	-3.0572164
-1.4384657	æ k	-3.0572164
-1.6269667	æ l	-3.0572164
-1.5630123	æ m	-3.0572164
-0.404334	æ n	-3.0572164
-1.6396102	æ p	-3.0572164
-1.3099183	æ s	-3.0572164
-0.812998	æ t	-3.0572164
-1.4740804	æ v	-3.0572164
-1.193494	æ z	-3.0572164
-2.3642964	æ ð	-3.0572164
-1.7099057	æ ŋ	-3.0572164
-3.7485297	æ ə	-3.0572164
-2.1336939	æ ɡ	-3.0572164
-1.6891171	æ ɹ	-3.0572164
-1.5965384	æ ɾ	-3.0572164
-2.2164312	æ ʃ	-3.0572164
-2.4430949	æ θ	-3.0572164
-3.4742692	ð </s>	-2.8090919
-2.4474553	ð aɪ	-2.8090919
-1.8785636	ð aʊ	-2.8090919
-2.877089	ð b	-2.8090919
-2.5606921	ð d	-2.8090919
-1.3960798	ð eɪ	-2.8090919
-2.7881024	ð f	-2.8090919
-2.0059714	ð h	-2.8090919
-1.8445408	ð i	-2.8090919
-2.6267517	ð j	-2.8090919
-2.7767574	ð k	-2.8090919
-2.9375415	ð l	-2.8090919
-2.3841077	ð m	-2.8090919
-3.1405349	ð n	-2.8090919
-1.8432338	ð oʊ	-2.8090919
-2.8632048	ð p	-2.8090919
-2.4219859	ð s	-2.8090919
-2.8632048	ð t	-2.8090919
-3.6857295	ð v	-2.8090919
-2.5745281	ð w	-2.8090919
-2.9540675	ð z	-2.8090919
-0.9363235	ð æ	-2.8090919
-1.8215962	ð ð	-2.8090919
-3.9209422	ð ɑ	-2.8090919
-3.5339976	ð ɑː	-2.8090919
-2.9891349	ð ɔ	-2.8090919
-4.1143384	ð ɔɪ	-2.8090919
-0.3371167	ð ə	-2.8090919
-1.2357745	ð ɚ	-2.8090919
-0.9706306	ð ɛ	-2.8090919
-2.7767574	ð ɡ	-2.8090919
-0.9489565	ð ɪ	-2.8090919
-3.0476943	ð ɹ	-2.8090919
-3.3326705	ð ʃ	-2.8090919
-2.3932721	ð ʌ	-2.8090919
-3.3749397	ð θ	-2.8090919
-1.5064894	ŋ </s>	-2.3788887
-2.1354863	ŋ aɪ	-2.3788887
-2.103208	ŋ aʊ	-2.3788887
-1.5838465	ŋ b	-2.3788887
-1.6827347	ŋ d	-2.3788887
-3.3668102	ŋ eɪ	-2.3788887
-1.532444	ŋ f	-2.3788887
-1.3271582	ŋ h	-2.3788887
-2.6085474	ŋ i	-2.3788887
-2.0673963	ŋ j	-2.3788887
-0.7462935	ŋ k	-2.3788887
-1.6508546	ŋ l	-2.3788887
-1.5341189	ŋ m	-2.3788887
-2.0731636	ŋ n	-2.3788887
-3.6907702	ŋ o	-2.3788887
-2.2861838	ŋ oʊ	-2.3788887
-1.9104442	ŋ p	-2.3788887
-1.4462993	ŋ s	-2.3788887
-1.252657	ŋ t	-2.3788887
-2.3811913	ŋ v	-2.3788887
-1.4532083	ŋ w	-2.3788887
-1.4235985	ŋ z	-2.3788887
-1.345243	ŋ æ	-2.3788887
-1.1410433	ŋ ð	-2.3788887
-2.6289364	ŋ ɑ	-2.3788887
-3.183337	ŋ ɑː	-2.3788887
-1.8109906	ŋ ɔ	-2.3788887
-2.7483139	ŋ ɔː	-2.3788887
-1.3732858	ŋ ə	-2.3788887
-2.4181179	ŋ ɚ	-2.3788887
-2.0731636	ŋ ɛ	-2.3788887
-1.0669607	ŋ ɡ	-2.3788887
-1.3068035	ŋ ɪ	-2.3788887
-1.8796315	ŋ ɹ	-2.3788887
-2.0560866	ŋ ʃ	-2.3788887
-1.4895047	ŋ ʌ	-2.3788887
-1.9748675	ŋ θ	-2.3788887
-0.0001653	ɑ ɹ	-3.4101021
-3.0652663	ɑː </s>	-2.3277872
-3.3920017	ɑː aɪ	-2.3277872
-1.4252687	ɑː b	-2.3277872
-1.1952034	ɑː d	-2.3277872
-1.8034795	ɑː f	-2.3277872
-2.8809339	ɑː h	-2.3277872
-2.9947684	ɑː j	-2.3277872
-1.1662512	ɑː k	-2.3277872
-1.151067	ɑː l	-2.3277872
-1.2306824	ɑː m	-2.3277872
-0.7818524	ɑː n	-2.3277872
-1.2513301	ɑː p	-2.3277872
-1.3632784	ɑː s	-2.3277872
-0.5769371	ɑː t	-2.3277872
-1.7596843	ɑː v	-2.3277872
-2.9341321	ɑː w	-2.3277872
-2.1992847	ɑː z	-2.3277872
-3.3920017	ɑː æ	-2.3277872
-1.6025241	ɑː ð	-2.3277872
-1.9017804	ɑː ŋ	-2.3277872
-3.595416	ɑː ɔ	-2.3277872
-3.595416	ɑː ɔː	-2.3277872
-3.595416	ɑː ə	-2.3277872
-3.595416	ɑː ɛ	-2.3277872
-1.8616666	ɑː ɡ	-2.3277872
-3.3920017	ɑː ɪ	-2.3277872
-1.4148731	ɑː ɹ	-2.3277872
-1.5769209	ɑː ɾ	-2.3277872
-2.2431082	ɑː ʃ	-2.3277872
-3.595416	ɑː ʒ	-2.3277872
-2.7519325	ɑː θ	-2.3277872
-2.8011088	ɔ </s>	-2.3380707
-3.1597518	ɔ aɪ	-2.3380707
-2.2894296	ɔ b	-2.3380707
-2.0120395	ɔ d	-2.3380707
-1.1863017	ɔ f	-2.3380707
-2.3873619	ɔ h	-2.3380707
-3.6056995	ɔ i	-2.3380707
-3.0755498	ɔ j	-2.3380707
-1.4200507	ɔ k	-2.3380707
-0.5385804	ɔ l	-2.3380707
-2.6628865	ɔ m	-2.3380707
-0.6403146	ɔ n	-2.3380707
-3.6056995	ɔ oʊ	-2.3380707
-3.1597518	ɔ p	-2.3380707
-1.4018264	ɔ s	-2.3380707
-1.1307458	ɔ t	-2.3380707
-2.9444156	ɔ w	-2.3380707
-1.8013742	ɔ z	-2.3380707
-2.762216	ɔ æ	-2.3380707
-2.1161611	ɔ ð	-2.3380707
-1.1641574	ɔ ŋ	-2.3380707
-3.6056995	ɔ ɔ	-2.3380707
-2.4371944	ɔ ə	-2.3380707
-3.6056995	ɔ ɛ	-2.3380707
-2.5581971	ɔ ɡ	-2.3380707
-2.2533917	ɔ ɪ	-2.3380707
-1.010762	ɔ ɹ	-2.3380707
-1.6023845	ɔ ɾ	-2.3380707
-2.4371944	ɔ ʃ	-2.3380707
-2.8912174	ɔ ʌ	-2.3380707
-2.4934951	ɔ θ	-2.3380707
-1.5055917	ɔɪ </s>	-1.3563844
-2.4308706	ɔɪ aʊ	-1.3563844
-2.4308706	ɔɪ b	-1.3563844
-1.1397596	ɔɪ d	-1.3563844
-1.8323271	ɔɪ f	-1.3563844
-1.5456553	ɔɪ h	-1.3563844
-2.6321976	ɔɪ i	-1.3563844
-2.2938433	ɔɪ j	-1.3563844
-2.1898385	ɔɪ k	-1.3563844
-0.8672364	ɔɪ l	-1.3563844
-1.8749574	ɔɪ m	-1.3563844
-0.6863252	ɔɪ n	-1.3563844
-0.790774	ɔɪ s	-1.3563844
-1.9222323	ɔɪ t	-1.3563844
-2.4308706	ɔɪ v	-1.3563844
-1.5897938	ɔɪ w	-1.3563844
-0.9940925	ɔɪ z	-1.3563844
-1.79351	ɔɪ æ	-1.3563844
-1.5456553	ɔɪ ð	-1.3563844
-2.4308706	ɔɪ ŋ	-1.3563844
-2.6321976	ɔɪ ɑ	-1.3563844
-2.4308706	ɔɪ ɔ	-1.3563844
-1.665755	ɔɪ ə	-1.3563844
-1.8749574	ɔɪ ɚ	-1.3563844
-2.4308706	ɔɪ ɛ	-1.3563844
-2.4308706	ɔɪ ɡ	-1.3563844
-1.4191228	ɔɪ ɪ	-1.3563844
-2.2938433	ɔɪ ɹ	-1.3563844
-2.4308706	ɔɪ ɾ	-1.3563844
-2.2938433	ɔɪ ʃ	-1.3563844
-2.1898385	ɔɪ ʌ	-1.3563844
-2.4308706	ɔɪ θ	-1.3563844
-0.0001479	ɔː ɹ	-3.4584868
-2.4350213	ə </s>	-3.1269136
-3.6443396	ə aɪ	-3.1269136
-4.4513171	ə aʊ	-3.1269136
-1.2581565	ə b	-3.1269136
-1.0820074	ə d	-3.1269136
-4.4513171	ə eɪ	-3.1269136
-1.3745996	ə f	-3.1269136
-1.515259	ə h	-3.1269136
-4.2634648	ə i	-3.1269136
-2.2268298	ə j	-3.1269136
-1.2766213	ə k	-3.1269136
-1.2414585	ə l	-3.1269136
-1.2108178	ə m	-3.1269136
-0.6952675	ə n	-3.1269136
-3.8232289	ə oʊ	-3.1269136
-1.3010304	ə p	-3.1269136
-0.9679447	ə s	-3.1269136
-1.3005318	ə t	-3.1269136
-1.5031747	ə v	-3.1269136
-1.554266	ə w	-3.1269136
-1.5759494	ə z	-3.1269136
-2.7143117	ə æ	-3.1269136
-1.7435366	ə ð	-3.1269136
-2.4654946	ə ŋ	-3.1269136
-4.4513171	ə ɑ	-3.1269136
-4.2634648	ə ɑː	-3.1269136
-3.7711416	ə ɔ	-3.1269136
-3.8232289	ə ɔː	-3.1269136
-3.1635154	ə ə	-3.1269136
-4.4513171	ə ɚ	-3.1269136
-3.6826355	ə ɛ	-3.1269136
-1.4787168	ə ɡ	-3.1269136
-3.3226898	ə ɪ	-3.1269136
-1.4868024	ə ɹ	-3.1269136
-2.2949818	ə ɾ	-3.1269136
-2.1570584	ə ʃ	-3.1269136
-3.4914344	ə ʌ	-3.1269136
-3.5765966	ə ʒ	-3.1269136
-2.0786433	ə θ	-3.1269136
-1.3544014	ɚ </s>	-2.6504463
-1.5429835	ɚ b	-2.6504463
-1.0508717	ɚ d	-2.6504463
-1.613862	ɚ f	-2.6504463
-1.3061883	ɚ h	-2.6504463
-2.1912224	ɚ j	-2.6504463
-1.6866438	ɚ k	-2.6504463
-1.65889	ɚ l	-2.6504463
-1.6124386	ɚ m	-2.6504463
-1.6081962	ɚ n	-2.6504463
-1.7109115	ɚ p	-2.6504463
-1.2889824	ɚ s	-2.6504463
-1.3359706	ɚ t	-2.6504463
-1.9849702	ɚ v	-2.6504463
-1.3322274	ɚ w	-2.6504463
-1.0493146	ɚ z	-2.6504463
-1.494884	ɚ æ	-2.6504463
-1.1597813	ɚ ð	-2.6504463
-3.2774886	ɚ ŋ	-2.6504463
-3.2162941	ɚ ɔ	-2.6504463
-2.7629758	ɚ ɔː	-2.6504463
-1.8174616	ɚ ɡ	-2.6504463
-2.6725807	ɚ ɪ	-2.6504463
-0.5735188	ɚ ɹ	-2.6504463
-2.4580312	ɚ ɾ	-2.6504463
-2.1650864	ɚ ʃ	-2.6504463
-3.6811809	ɚ ʌ	-2.6504463
-2.4580312	ɚ θ	-2.6504463
-2.9492175	ɛ b	-2.9955754
-1.0690743	ɛ d	-2.9955754
-2.0106835	ɛ f	-2.9955754
-4.168247	ɛ h	-2.9955754
-1.0838179	ɛ k	-2.9955754
-0.9699943	ɛ l	-2.9955754
-1.2586438	ɛ m	-2.9955754
-0.6426496	ɛ n	-2.9955754
-1.741975	ɛ p	-2.9955754
-1.1394844	ɛ s	-2.9955754
-1.3697588	ɛ t	-2.9955754
-1.2604564	ɛ v	-2.9955754
-4.168247	ɛ w	-2.9955754
-1.8979107	ɛ z	-2.9955754
-2.069705	ɛ ð	-2.9955754
-2.0673698	ɛ ŋ	-2.9955754
-1.750873	ɛ ɡ	-2.9955754
-0.8046737	ɛ ɹ	-2.9955754
-1.7194497	ɛ ɾ	-2.9955754
-2.0273509	ɛ ʃ	-2.9955754
-2.4164247	ɛ ʒ	-2.9955754
-2.2258012	ɛ θ	-2.9955754
-2.3407524	ɡ </s>	-2.2178048
-2.0679753	ɡ aɪ	-2.2178048
-2.8816232	ɡ aʊ	-2.2178048
-2.7202918	ɡ b	-2.2178048
-2.09907	ɡ d	-2.2178048
-1.3478704	ɡ eɪ	-2.2178048
-2.7935088	ɡ f	-2.2178048
-2.490317	ɡ h	-2.2178048
-2.5543267	ɡ i	-2.2178048
-1.7976022	ɡ j	-2.2178048
-2.7935088	ɡ k	-2.2178048
-1.1736368	ɡ l	-2.2178048
-2.4523488	ɡ m	-2.2178048
-1.6910518	ɡ n	-2.2178048
-2.4523488	ɡ o	-2.2178048
-1.0879489	ɡ oʊ	-2.2178048
-2.6029255	ɡ p	-2.2178048
-2.5319254	ɡ s	-2.2178048
-2.6294291	ɡ t	-2.2178048
-2.5543267	ɡ uː	-2.2178048
-1.7976022	ɡ w	-2.2178048
-1.380507	ɡ z	-2.2178048
-1.3728713	ɡ æ	-2.2178048
-2.6576559	ɡ ð	-2.2178048
-1.5707767	ɡ ɑ	-2.2178048
-1.326946	ɡ ɑː	-2.2178048
-1.8443039	ɡ ɔ	-2.2178048
-3.5538272	ɡ ɔɪ	-2.2178048
-3.5538272	ɡ ɔː	-2.2178048
-1.3774366	ɡ ə	-2.2178048
-1.3393793	ɡ ɚ	-2.2178048
-0.9584958	ɡ ɛ	-2.2178048
-3.2404935	ɡ ɡ	-2.2178048
-1.1992552	ɡ ɪ	-2.2178048
-0.7275066	ɡ ɹ	-2.2178048
-2.9922872	ɡ ʃ	-2.2178048
-1.2854161	ɡ ʊ	-2.2178048
-3.5538272	ɡ ʊɹ	-2.2178048
-1.6267638	ɡ ʌ	-2.2178048
-2.9334399	ɡ ʒ	-2.2178048
-3.2404935	ɡ θ	-2.2178048
-2.8614111	ɪ aɪ	-3.0299439
-3.097941	ɪ aʊ	-3.0299439
-2.5104502	ɪ b	-3.0299439
-1.4537362	ɪ d	-3.0299439
-2.7191341	ɪ eɪ	-3.0299439
-1.6086875	ɪ f	-3.0299439
-3.5421646	ɪ h	-3.0299439
-2.9379167	ɪ i	-3.0299439
-4.3714684	ɪ iə	-3.0299439
-3.5097711	ɪ j	-3.0299439
-1.4179393	ɪ k	-3.0299439
-1.351748	ɪ l	-3.0299439
-1.3397662	ɪ m	-3.0299439
-0.7983461	ɪ n	-3.0299439
-3.7031672	ɪ o	-3.0299439
-2.3723576	ɪ oʊ	-3.0299439
-2.0458314	ɪ p	-3.0299439
-1.0794037	ɪ s	-3.0299439
-1.0412668	ɪ t	-3.0299439
-4.1888462	ɪ uː	-3.0299439
-1.6838178	ɪ v	-3.0299439
-3.0860134	ɪ w	-3.0299439
-1.0416916	ɪ z	-3.0299439
-2.4659178	ɪ æ	-3.0299439
-1.3513143	ɪ ð	-3.0299439
-0.8219691	ɪ ŋ	-3.0299439
-2.9056801	ɪ ɑ	-3.0299439
-2.7042277	ɪ ɑː	-3.0299439
-2.9912571	ɪ ɔ	-3.0299439
-4.0606785	ɪ ɔɪ	-3.0299439
-3.332776	ɪ ɔː	-3.0299439
-1.9756656	ɪ ə	-3.0299439
-2.8979814	ɪ ɚ	-3.0299439
-2.1563838	ɪ ɛ	-3.0299439
-1.9482597	ɪ ɡ	-3.0299439
-2.2804413	ɪ ɪ	-3.0299439
-1.4445065	ɪ ɹ	-3.0299439
-1.3914753	ɪ ɾ	-3.0299439
-1.7341606	ɪ ʃ	-3.0299439
-2.3589187	ɪ ʌ	-3.0299439
-3.1358252	ɪ ʒ	-3.0299439
-2.3270355	ɪ θ	-3.0299439
-2.1006118	ɹ </s>	-2.8786915
-1.3683426	ɹ aɪ	-2.8786915
-1.8797227	ɹ aʊ	-2.8786915
-2.0940798	ɹ b	-2.8786915
-1.3628909	ɹ d	-2.8786915
-1.3892583	ɹ eɪ	-2.8786915
-1.9212186	ɹ f	-2.8786915
-1.8275771	ɹ h	-2.8786915
-1.0340228	ɹ i	-2.8786915
-2.2457823	ɹ iə	-2.8786915
-2.2943692	ɹ j	-2.8786915
-1.8154635	ɹ k	-2.8786915
-1.7397027	ɹ l	-2.8786915
-1.6351143	ɹ m	-2.8786915
-1.8718789	ɹ n	-2.8786915
-2.7666007	ɹ o	-2.8786915
-1.4964466	ɹ oʊ	-2.8786915
-2.1366156	ɹ p	-2.8786915
-1.6015218	ɹ s	-2.8786915
-1.4694669	ɹ t	-2.8786915
-1.5260896	ɹ uː	-2.8786915
-2.7443077	ɹ v	-2.8786915
-1.7375579	ɹ w	-2.8786915
-1.9158095	ɹ z	-2.8786915
-1.3284752	ɹ æ	-2.8786915
-1.756508	ɹ ð	-2.8786915
-3.7471514	ɹ ŋ	-2.8786915
-2.6032936	ɹ ɑ	-2.8786915
-1.7052691	ɹ ɑː	-2.8786915
-1.7276864	ɹ ɔ	-2.8786915
-2.8993447	ɹ ɔɪ	-2.8786915
-2.8065041	ɹ ɔː	-2.8786915
-0.9719211	ɹ ə	-2.8786915
-2.3263648	ɹ ɚ	-2.8786915
-1.1915363	ɹ ɛ	-2.8786915
-2.2147412	ɹ ɡ	-2.8786915
-0.9453473	ɹ ɪ	-2.8786915
-2.3951803	ɹ ɹ	-2.8786915
-2.0211445	ɹ ɾ	-2.8786915
-2.3520101	ɹ ʃ	-2.8786915
-3.377367	ɹ ʊ	-2.8786915
-1.2578089	ɹ ʌ	-2.8786915
-4.2306595	ɹ ʒ	-2.8786915
-2.3579207	ɹ θ	-2.8786915
-2.3545654	ɾ aɪ	-2.4683473
-2.3363848	ɾ aʊ	-2.4683473
-2.3189348	ɾ eɪ	-2.4683473
-0.7572944	ɾ i	-2.4683473
-2.9180303	ɾ iə	-2.4683473
-0.9569161	ɾ l	-2.4683473
-3.344985	ɾ o	-2.4683473
-2.0299693	ɾ oʊ	-2.4683473
-3.1932531	ɾ uː	-2.4683473
-2.0862171	ɾ æ	-2.4683473
-3.344985	ɾ ɑ	-2.4683473
-2.7069498	ɾ ɑː	-2.4683473
-1.6967137	ɾ ɔ	-2.4683473
-0.6669469	ɾ ə	-2.4683473
-0.7187006	ɾ ɚ	-2.4683473
-2.2131914	ɾ ɛ	-2.4683473
-0.632519	ɾ ɪ	-2.4683473
-1.9647737	ɾ ʌ	-2.4683473
-2.1135554	ʃ </s>	-2.3648635
-1.7027512	ʃ aɪ	-2.3648635
-2.2986882	ʃ aʊ	-2.3648635
-2.1893721	ʃ b	-2.3648635
-2.2898988	ʃ d	-2.3648635
-1.5955688	ʃ eɪ	-2.3648635
-2.1021128	ʃ f	-2.3648635
-1.7050083	ʃ h	-2.3648635
-0.8343245	ʃ i	-2.3648635
-3.1484436	ʃ iə	-2.3648635
-2.3076591	ʃ j	-2.3648635
-1.9798831	ʃ k	-2.3648635
-1.7072772	ʃ l	-2.3648635
-1.7604497	ʃ m	-2.3648635
-2.3980176	ʃ n	-2.3648635
-2.7113514	ʃ o	-2.3648635
-1.6619552	ʃ oʊ	-2.3648635
-2.3076591	ʃ p	-2.3648635
-2.0153869	ʃ s	-2.3648635
-1.3507101	ʃ t	-2.3648635
-1.7869533	ʃ uː	-2.3648635
-3.0380868	ʃ v	-2.3648635
-1.7118509	ʃ w	-2.3648635
-3.3955982	ʃ z	-2.3648635
-1.2797659	ʃ æ	-2.3648635
-1.752804	ʃ ð	-2.3648635
-1.7553376	ʃ ɑ	-2.3648635
-1.9431302	ʃ ɑː	-2.3648635
-2.420933	ʃ ɔ	-2.3648635
-3.0897693	ʃ ɔɪ	-2.3648635
-2.2034025	ʃ ɔː	-2.3648635
-0.6009165	ʃ ə	-2.3648635
-1.2979938	ʃ ɚ	-2.3648635
-1.6702311	ʃ ɛ	-2.3648635
-2.609478	ʃ ɡ	-2.3648635
-1.1881433	ʃ ɪ	-2.3648635
-2.1757809	ʃ ɹ	-2.3648635
-2.3168192	ʃ ʃ	-2.3648635
-1.4319153	ʃ ʊ	-2.3648635
-1.9202499	ʃ ʊɹ	-2.3648635
-1.7553376	ʃ ʌ	-2.3648635
-2.9120901	ʃ θ	-2.3648635
-3.21417	ʊ </s>	-2.0938002
-3.0817217	ʊ aɪ	-2.0938002
-2.2853456	ʊ aʊ	-2.0938002
-2.5899599	ʊ b	-2.0938002
-0.375814	ʊ d	-2.0938002
-2.8982484	ʊ eɪ	-2.0938002
-2.6705832	ʊ f	-2.0938002
-2.0106817	ʊ h	-2.0938002
-2.2337966	ʊ i	-2.0938002
-3.0817217	ʊ j	-2.0938002
-0.8775241	ʊ k	-2.0938002
-1.159842	ʊ l	-2.0938002
-1.532298	ʊ m	-2.0938002
-2.1330293	ʊ n	-2.0938002
-2.7173047	ʊ oʊ	-2.0938002
-2.2337966	ʊ p	-2.0938002
-2.5546444	ʊ s	-2.0938002
-1.2523995	ʊ t	-2.0938002
-3.0817217	ʊ v	-2.0938002
-2.030514	ʊ w	-2.0938002
-2.7173047	ʊ z	-2.0938002
-1.8709829	ʊ æ	-2.0938002
-1.363576	ʊ ð	-2.0938002
-2.9803674	ʊ ɑ	-2.0938002
-2.7173047	ʊ ɑː	-2.0938002
-2.3877436	ʊ ɔ	-2.0938002
-3.21417	ʊ ɔː	-2.0938002
-1.2456871	ʊ ə	-2.0938002
-2.9803674	ʊ ɚ	-2.0938002
-1.6020435	ʊ ɛ	-2.0938002
-2.4365802	ʊ ɡ	-2.0938002
-1.5387896	ʊ ɪ	-2.0938002
-1.5453797	ʊ ɹ	-2.0938002
-2.4114758	ʊ ɾ	-2.0938002
-2.0010952	ʊ ʃ	-2.0938002
-2.0512954	ʊ ʌ	-2.0938002
-3.4056816	ʊ θ	-2.0938002
-1.8557561	ʊɹ </s>	-1.5547261
-1.4616091	ʊɹ b	-1.5547261
-1.1136802	ʊɹ d	-1.5547261
-1.2680939	ʊɹ f	-1.5547261
-1.249001	ʊɹ h	-1.5547261
-1.5840155	ʊɹ j	-1.5547261
-1.3662256	ʊɹ k	-1.5547261
-1.1346986	ʊɹ l	-1.5547261
-1.1881002	ʊɹ m	-1.5547261
-1.6492822	ʊɹ n	-1.5547261
-1.288065	ʊɹ p	-1.5547261
-1.249001	ʊɹ s	-1.5547261
-1.3089989	ʊɹ t	-1.5547261
-2.1035406	ʊɹ v	-1.5547261
-1.4466319	ʊɹ w	-1.5547261
-2.3723859	ʊɹ z	-1.5547261
-1.8557561	ʊɹ æ	-1.5547261
-1.6264193	ʊɹ ð	-1.5547261
-1.5272879	ʊɹ ɡ	-1.5547261
-0.6551911	ʊɹ ɹ	-1.5547261
-1.7550859	ʊɹ ʃ	-1.5547261
-2.7403627	ʊɹ ʒ	-1.5547261
-2.1035406	ʊɹ θ	-1.5547261
-4.1524269	ʌ </s>	-2.9797553
-1.8696582	ʌ b	-2.9797553
-1.9729426	ʌ d	-2.9797553
-1.8343635	ʌ f	-2.9797553
-4.1524269	ʌ j	-2.9797553
-2.0031172	ʌ k	-2.9797553
-1.9321649	ʌ l	-2.9797553
-0.9747546	ʌ m	-2.9797553
-0.8837181	ʌ n	-2.9797553
-1.4944997	ʌ p	-2.9797553
-1.2873577	ʌ s	-2.9797553
-0.8846686	ʌ t	-2.9797553
-0.580831	ʌ v	-2.9797553
-0.8502297	ʌ z	-2.9797553
-1.4669749	ʌ ð	-2.9797553
-1.6057753	ʌ ŋ	-2.9797553
-2.346846	ʌ ɡ	-2.9797553
-2.8105852	ʌ ɹ	-2.9797553
-2.3332702	ʌ ɾ	-2.9797553
-2.2672653	ʌ ʃ	-2.9797553
-3.9280309	ʌ ʒ	-2.9797553
-2.0288634	ʌ θ	-2.9797553
-1.7579924	ʒ </s>	-1.9439762
-2.2373279	ʒ aɪ	-1.9439762
-2.0601281	ʒ b	-1.9439762
-1.2948715	ʒ d	-1.9439762
-1.6550977	ʒ eɪ	-1.9439762
-2.031961	ʒ f	-1.9439762
-2.0749277	ʒ h	-1.9439762
-1.452802	ʒ i	-1.9439762
-2.4262112	ʒ iə	-1.9439762
-2.4614021	ʒ j	-1.9439762
-2.3350711	ʒ k	-1.9439762
-2.0185342	ʒ l	-1.9439762
-1.7164994	ʒ m	-1.9439762
-2.4614021	ʒ n	-1.9439762
-2.8494938	ʒ o	-1.9439762
-1.8832994	ʒ oʊ	-1.9439762
-2.4262112	ʒ p	-1.9439762
-2.0458162	ʒ s	-1.9439762
-2.0601281	ʒ t	-1.9439762
-1.315331	ʒ uː	-1.9439762
-3.0805273	ʒ v	-1.9439762
-1.7507957	ʒ w	-1.9439762
-1.4564107	ʒ æ	-1.9439762
-1.8832994	ʒ ð	-1.9439762
-2.9498254	ʒ ɑ	-1.9439762
-1.5357022	ʒ ɑː	-1.9439762
-2.1226168	ʒ ɔ	-1.9439762
-1.4456733	ʒ ɔɪ	-1.9439762
-2.0749277	ʒ ɔː	-1.9439762
-0.8667967	ʒ ə	-1.9439762
-1.0654429	ʒ ɚ	-1.9439762
-0.8878067	ʒ ɛ	-1.9439762
-2.7680464	ʒ ɡ	-1.9439762
-1.0101933	ʒ ɪ	-1.9439762
-2.4262112	ʒ ɹ	-1.9439762
-2.6994881	ʒ ʃ	-1.9439762
-2.4262112	ʒ ʊɹ	-1.9439762
-0.9936515	ʒ ʌ	-1.9439762
-2.7680464	ʒ θ	-1.9439762
-1.5039195	θ </s>	-1.9165214
-2.1487412	θ aɪ	-1.9165214
-1.7605798	θ aʊ	-1.9165214
-2.1301372	θ b	-1.9165214
-2.0326733	θ d	-1.9165214
-3.0530726	θ eɪ	-1.9165214
-1.7024399	θ f	-1.9165214
-1.7764179	θ h	-1.9165214
-1.5492715	θ i	-1.9165214
-2.3359232	θ iə	-1.9165214
-2.4722433	θ j	-1.9165214
-2.1487412	θ k	-1.9165214
-1.9411742	θ l	-1.9165214
-2.2323248	θ m	-1.9165214
-2.2560007	θ n	-1.9165214
-2.822039	θ o	-1.9165214
-2.822039	θ oʊ	-1.9165214
-2.0183615	θ p	-1.9165214
-1.6219545	θ s	-1.9165214
-1.8462673	θ t	-1.9165214
-2.3987564	θ uː	-1.9165214
-2.7405916	θ v	-1.9165214
-1.6634331	θ w	-1.9165214
-2.6128367	θ z	-1.9165214
-1.3777421	θ æ	-1.9165214
-1.7528722	θ ð	-1.9165214
-2.5607495	θ ɑ	-1.9165214
-2.9223706	θ ɑː	-1.9165214
-1.0796979	θ ɔ	-1.9165214
-2.822039	θ ɔː	-1.9165214
-1.329047	θ ə	-1.9165214
-2.1301372	θ ɚ	-1.9165214
-2.1301372	θ ɛ	-1.9165214
-2.3662044	θ ɡ	-1.9165214
-0.4690263	θ ɪ	-1.9165214
-0.8104894	θ ɹ	-1.9165214
-2.7405916	θ ʃ	-1.9165214
-1.5398143	θ ʌ	-1.9165214
-2.6720333	θ θ	-1.9165214

\3-grams:
-2.43e-05	</s> <s> <s>
-1.1068415	<s> <s> aɪ
-2.5552117	<s> <s> aʊ
-1.233847	<s> <s> b
-1.635113	<s> <s> d
-3.2540699	<s> <s> eɪ
-1.707663	<s> <s> f
-1.0473829	<s> <s> h
-2.4216802	<s> <s> i
-1.4998588	<s> <s> j
-1.8260696	<s> <s> k
-1.8039556	<s> <s> l
-1.5170144	<s> <s> m
-1.4892843	<s> <s> n
-3.9524813	<s> <s> o
-1.9039554	<s> <s> oʊ
-1.8228407	<s> <s> p
-1.4078705	<s> <s> s
-1.7330674	<s> <s> t
-2.5059967	<s> <s> v
-1.0351485	<s> <s> w
-3.9524813	<s> <s> z
-1.0874826	<s> <s> æ
-0.7954203	<s> <s> ð
-2.8070017	<s> <s> ɑ
-2.4346445	<s> <s> ɑː
-1.8924757	<s> <s> ɔ
-3.0500023	<s> <s> ɔː
-1.6147199	<s> <s> ə
-3.1749119	<s> <s> ɚ
-2.0898472	<s> <s> ɛ
-1.9800444	<s> <s> ɡ
-1.1476777	<s> <s> ɪ
-2.1270944	<s> <s> ɹ
-1.6288939	<s> <s> ʃ
-2.2629693	<s> <s> ʌ
-2.384959	<s> <s> θ
-2.5435626	<s> aɪ aɪ
-2.8559767	<s> aɪ aʊ
-1.6450285	<s> aɪ b
-0.9286064	<s> aɪ d
-2.8598142	<s> aɪ eɪ
-1.7809671	<s> aɪ f
-0.9436759	<s> aɪ h
-2.3838817	<s> aɪ i
-2.5482399	<s> aɪ j
-1.2432335	<s> aɪ k
-1.3596296	<s> aɪ l
-1.1412624	<s> aɪ m
-1.2876765	<s> aɪ n
-2.24788	<s> aɪ oʊ
-1.9402881	<s> aɪ p
-1.0401526	<s> aɪ s
-1.4613675	<s> aɪ t
-1.7884244	<s> aɪ v
-0.9597559	<s> aɪ w
-1.095628	<s> aɪ æ
-2.1939154	<s> aɪ ð
-2.2523776	<s> aɪ ɔ
-2.1810066	<s> aɪ ə
-2.0096641	<s> aɪ ɛ
-1.851192	<s> aɪ ɡ
-2.1286112	<s> aɪ ɪ
-1.6013633	<s> aɪ ɹ
-1.4103527	<s> aɪ ʃ
-2.3643574	<s> aɪ ʌ
-1.6802593	<s> aɪ θ
-1.0078221	<s> aʊ t
-0.0974324	<s> aʊ ɚ
-1.4021951	<s> aʊ ɾ
-1.331662	<s> b aɪ
-2.5378481	<s> b aʊ
-1.5269134	<s> b i
-1.7851994	<s> b l
-1.8704349	<s> b oʊ
-2.7113247	<s> b uː
-2.4836533	<s> b æ
-2.6837165	<s> b ɑ
-2.2014519	<s> b ɑː
-2.2458377	<s> b ɔ
-2.0149556	<s> b ɔɪ
-1.0469936	<s> b ə
-1.482867	<s> b ɛ
-1.2287828	<s> b ɪ
-1.614028	<s> b ɹ
-2.6806409	<s> b ʊ
-0.1865478	<s> b ʌ
-2.2534646	<s> d aɪ
-1.8417036	<s> d aʊ
-1.4933716	<s> d eɪ
-2.2078599	<s> d i
-2.2883631	<s> d j
-1.1178688	<s> d oʊ
-0.8721158	<s> d uː
-1.5335594	<s> d æ
-2.3281875	<s> d ɑ
-1.5679567	<s> d ɑː
-1.7282842	<s> d ɔ
-1.2598493	<s> d ə
-1.7167332	<s> d ɛ
-0.8543546	<s> d ɪ
-1.6077654	<s> d ɹ
-1.6526752	<s> d ʊɹ
-1.6151231	<s> d ʌ
-0.4942126	<s> d ʒ
-0.8991794	<s> eɪ aɪ
-0.8067186	<s> eɪ m
-0.3846605	<s> eɪ n
-1.1435992	<s> f aɪ
-1.5506635	<s> f i
-1.8997724	<s> f j
-1.6172736	<s> f o
-2.2399013	<s> f oʊ
-1.8639258	<s> f æ
-2.2422307	<s> f ɑ
-1.4128523	<s> f ɑː
-0.893298	<s> f ɔ
-0.6152615	<s> f ɔː
-1.448665	<s> f ə
-0.9241017	<s> f ɚ
-1.5177325	<s> f ɛ
-1.3138622	<s> f ɪ
-0.79466	<s> f ɹ
-1.9600294	<s> f ʌ
-2.5733256	<s> h aɪ
-1.0654271	<s> h aʊ
-2.2964522	<s> h eɪ
-0.2660605	<s> h i
-2.8728885	<s> h j
-1.8925948	<s> h oʊ
-1.2546147	<s> h uː
-1.1739988	<s> h æ
-2.3953836	<s> h ɑ
-2.4244824	<s> h ɑː
-2.8744491	<s> h ɔ
-1.2110394	<s> h ə
-2.6106389	<s> h ɚ
-1.8882963	<s> h ɛ
-0.8819083	<s> h ɪ
-1.9961211	<s> h ʌ
-1.4997707	<s> i k
-0.6621229	<s> i t
-0.254663	<s> i v
-0.9651744	<s> i ð
-1.85871	<s> j i
-2.1358608	<s> j o
-2.4583363	<s> j oʊ
-0.2631596	<s> j uː
-2.4609505	<s> j æ
-2.4531547	<s> j ɑː
-0.4826686	<s> j ɛ
-1.589963	<s> j ʊ
-1.2126359	<s> j ʊɹ
-2.3417063	<s> j ʌ
-2.1035643	<s> k aɪ
-1.4288161	<s> k eɪ
-1.6724623	<s> k i
-2.0440611	<s> k j
-1.2194423	<s> k l
-1.3897942	<s> k oʊ
-1.5799788	<s> k w
-0.7327264	<s> k æ
-1.6934434	<s> k ɑ
-1.3625219	<s> k ɑː
-1.3786389	<s> k ɔ
-2.1432309	<s> k ɔː
-0.9073793	<s> k ə
-2.1074791	<s> k ɚ
-1.8272956	<s> k ɛ
-1.6836266	<s> k ɪ
-0.8051226	<s> k ɹ
-1.447493	<s> k ʊ
-0.9993073	<s> k ʌ
-1.1572345	<s> l aɪ
-1.1274692	<s> l eɪ
-2.0370587	<s> l oʊ
-1.3971461	<s> l uː
-1.2467698	<s> l æ
-1.7058812	<s> l ɑ
-1.6955944	<s> l ɑː
-1.4644169	<s> l ɔ
-1.7038184	<s> l ɔː
-1.9761223	<s> l ə
-0.4143339	<s> l ɛ
-1.0673547	<s> l ɪ
-1.0703572	<s> l ʊ
-1.3802144	<s> l ʌ
-0.6877943	<s> m aɪ
-1.2362574	<s> m eɪ
-1.4581825	<s> m i
-2.4040914	<s> m j
-1.8246946	<s> m o
-1.3313158	<s> m oʊ
-1.7500194	<s> m uː
-1.251993	<s> m æ
-1.0105345	<s> m ɑ
-2.4135457	<s> m ɑː
-1.9556491	<s> m ɔ
-2.4196711	<s> m ɔː
-1.8286359	<s> m ə
-1.2114908	<s> m ɛ
-0.5286785	<s> m ɪ
-1.2588758	<s> m ʌ
-2.4122123	<s> n aɪ
-0.625997	<s> n aʊ
-1.4788286	<s> n eɪ
-2.1183627	<s> n i
-0.4697202	<s> n oʊ
-2.1196152	<s> n w
-2.1173737	<s> n æ
-0.8881758	<s> n ɑː
-1.9973689	<s> n ɔ
-1.5275241	<s> n ɔː
-1.9325992	<s> n ə
-1.1569135	<s> n ɛ
-1.416497	<s> n ɪ
-1.3581758	<s> n ʌ
-9.79e-05	<s> o ɹ
-1.0312242	<s> oʊ aɪ
-1.7192801	<s> oʊ b
-1.3523961	<s> oʊ d
-1.6014151	<s> oʊ f
-1.244511	<s> oʊ h
-1.1588482	<s> oʊ j
-1.6680347	<s> oʊ k
-1.1402562	<s> oʊ l
-1.3994394	<s> oʊ m
-0.6504303	<s> oʊ n
-1.5429339	<s> oʊ p
-1.7392491	<s> oʊ s
-1.5379881	<s> oʊ t
-1.4259338	<s> oʊ v
-1.3783591	<s> oʊ w
-1.2377724	<s> oʊ ð
-2.1109653	<s> oʊ ɑː
-2.0304353	<s> oʊ ə
-1.1674327	<s> oʊ ɪ
-2.0597882	<s> oʊ ɹ
-1.6701105	<s> p aɪ
-1.8440389	<s> p aʊ
-1.7799854	<s> p eɪ
-1.1120539	<s> p i
-1.347437	<s> p l
-1.8351978	<s> p o
-1.6469818	<s> p oʊ
-1.4092588	<s> p æ
-1.1451042	<s> p ɑː
-2.122931	<s> p ɔɪ
-1.3838587	<s> p ə
-0.8640683	<s> p ɚ
-1.502334	<s> p ɛ
-1.384328	<s> p ɪ
-0.5751609	<s> p ɹ
-1.0931879	<s> p ʊ
-1.3974526	<s> p ʊɹ
-2.0784742	<s> p ʌ
-2.0259532	<s> s aɪ
-2.2547441	<s> s aʊ
-1.5949571	<s> s eɪ
-1.4267052	<s> s i
-1.8879602	<s> s k
-2.0220224	<s> s l
-2.4249712	<s> s m
-2.504076	<s> s n
-0.6530038	<s> s oʊ
-1.6692589	<s> s p
-0.9810954	<s> s t
-2.0696132	<s> s uː
-1.7550636	<s> s w
-1.433736	<s> s æ
-2.0811856	<s> s ɑː
-2.4702636	<s> s ɔ
-1.097864	<s> s ə
-2.4764329	<s> s ɚ
-0.7664981	<s> s ɛ
-1.0745721	<s> s ɪ
-0.9050413	<s> s ʌ
-1.7318375	<s> t aɪ
-1.2052084	<s> t eɪ
-1.6501504	<s> t o
-1.7606714	<s> t oʊ
-1.1706788	<s> t uː
-1.6889219	<s> t w
-2.085451	<s> t æ
-1.5519331	<s> t ɑː
-2.1836658	<s> t ɔ
-0.4228521	<s> t ə
-1.2835197	<s> t ɛ
-1.3596859	<s> t ɪ
-1.1518591	<s> t ɹ
-0.9093585	<s> t ʃ
-1.3331862	<s> t ʊ
-1.5018378	<s> v eɪ
-1.4997444	<s> v i
-1.5178684	<s> v oʊ
-1.4745585	<s> v æ
-0.2927197	<s> v ɛ
-0.657442	<s> v ɪ
-1.034051	<s> w aɪ
-2.2648366	<s> w eɪ
-0.8010795	<s> w i
-2.6146538	<s> w oʊ
-2.6009134	<s> w ɑː
-2.3999341	<s> w ɔ
-1.9274836	<s> w ə
-0.53045	<s> w ɛ
-0.9165546	<s> w ɪ
-1.6326875	<s> w ʊ
-0.5473744	<s> w ʌ
-0.2996785	<s> z aʊ
-2.4196494	<s> æ d
-1.2672009	<s> æ f
-2.0112392	<s> æ l
-2.147809	<s> æ m
-0.1508934	<s> æ n
-2.774475	<s> æ p
-1.8099934	<s> æ s
-1.1110408	<s> æ t
-0.9873353	<s> æ z
-2.7877482	<s> æ ŋ
-1.7490066	<s> æ ɾ
-3.1455388	<s> ð aɪ
-2.1141851	<s> ð aʊ
-0.9806378	<s> ð eɪ
-1.7603508	<s> ð i
-1.8566342	<s> ð oʊ
-1.0598541	<s> ð æ
-0.3623933	<s> ð ə
-0.7213254	<s> ð ɛ
-0.8956565	<s> ð ɪ
-1.7798263	<s> ð ʌ
-1.1e-05	<s> ɑ ɹ
-1.2724236	<s> ɑː b
-1.3318011	<s> ɑː f
-1.3759476	<s> ɑː h
-1.376927	<s> ɑː j
-0.9802853	<s> ɑː k
-1.0727887	<s> ɑː l
-1.4066496	<s> ɑː m
-0.942557	<s> ɑː n
-1.1189663	<s> ɑː s
-1.2016002	<s> ɑː w
-1.3056509	<s> ɑː ð
-1.3788924	<s> ɑː ɪ
-1.4833941	<s> ɑː ɹ
-1.5359368	<s> ɑː ɾ
-1.3744827	<s> ɑː θ
-1.6807834	<s> ɔ f
-1.9656269	<s> ɔ k
-0.3892357	<s> ɔ l
-0.3525832	<s> ɔ n
-1.9609081	<s> ɔ s
-1.6675559	<s> ɔ t
-1.884788	<s> ɔ ŋ
-1.2559613	<s> ɔ ɹ
-2.0793681	<s> ɔ ʃ
-1.64e-05	<s> ɔː ɹ
-1.03062	<s> ə b
-1.2763402	<s> ə d
-1.2038329	<s> ə f
-1.5567	<s> ə h
-1.7594118	<s> ə j
-1.0729249	<s> ə k
-1.0500248	<s> ə l
-1.0695478	<s> ə m
-0.8728015	<s> ə n
-1.120059	<s> ə p
-1.0732329	<s> ə s
-1.7817324	<s> ə t
-1.6274418	<s> ə v
-1.6323638	<s> ə w
-1.3476963	<s> ə ɡ
-1.4928549	<s> ə ɹ
-1.8780097	<s> ə ʃ
-1.4617445	<s> ə θ
-0.0480396	<s> ɚ ɹ
-1.4799674	<s> ɛ d
-0.7137047	<s> ɛ k
-1.4525403	<s> ɛ l
-0.9163051	<s> ɛ n
-1.4968254	<s> ɛ s
-0.3016828	<s> ɛ v
-1.4112821	<s> ɛ ɡ
-1.555465	<s> ɛ ɹ
-1.8138478	<s> ɡ eɪ
-1.7351675	<s> ɡ l
-1.3338828	<s> ɡ o
-0.8012668	<s> ɡ oʊ
-1.6873627	<s> ɡ w
-1.2155428	<s> ɡ æ
-1.8903661	<s> ɡ ɑ
-1.1505663	<s> ɡ ɑː
-1.9529654	<s> ɡ ɔ
-1.3719388	<s> ɡ ə
-1.0528801	<s> ɡ ɛ
-1.0856976	<s> ɡ ɪ
-0.7405593	<s> ɡ ɹ
-0.8127004	<s> ɡ ʊ
-1.9057231	<s> ɡ ʌ
-2.4293837	<s> ɪ d
-0.7749789	<s> ɪ f
-1.7909931	<s> ɪ l
-1.9974192	<s> ɪ m
-0.6179328	<s> ɪ n
-2.1146555	<s> ɪ s
-0.4441959	<s> ɪ t
-2.3018953	<s> ɪ v
-1.3351565	<s> ɪ z
-1.921038	<s> ɪ ŋ
-2.427761	<s> ɪ ɹ
-0.9078542	<s> ɪ ɾ
-1.1561719	<s> ɹ aɪ
-1.8338091	<s> ɹ aʊ
-0.920375	<s> ɹ eɪ
-1.4049254	<s> ɹ i
-1.7569334	<s> ɹ oʊ
-1.5252033	<s> ɹ uː
-0.7985249	<s> ɹ æ
-1.5480496	<s> ɹ ɑː
-0.5123758	<s> ɹ ə
-1.066907	<s> ɹ ɛ
-1.3711684	<s> ɹ ɪ
-1.4722911	<s> ɹ ʌ
-2.2556125	<s> ʃ aɪ
-2.0343693	<s> ʃ aʊ
-1.9857248	<s> ʃ eɪ
-0.1058694	<s> ʃ i
-1.7187574	<s> ʃ oʊ
-1.3646737	<s> ʃ æ
-2.2652372	<s> ʃ ɑ
-2.3168463	<s> ʃ ɔː
-1.9948851	<s> ʃ ɛ
-1.329443	<s> ʃ ʊ
-1.636988	<s> ʃ ʊɹ
-2.2652372	<s> ʃ ʌ
-1.7140274	<s> ʌ l
-1.3101369	<s> ʌ m
-0.4713837	<s> ʌ n
-0.3530772	<s> ʌ v
-1.2377973	<s> ʌ ð
-1.6787015	<s> ʌ ŋ
-1.7342997	<s> ʌ ɾ
-0.7653429	<s> θ æ
-1.4721335	<s> θ ɔ
-1.5317999	<s> θ ə
-0.6838287	<s> θ ɪ
-0.2853203	<s> θ ɹ
-6e-07	aɪ </s> <s>
-1.3266737	aɪ aɪ d
-1.321963	aɪ aɪ h
-1.1565808	aɪ aɪ k
-1.719519	aɪ aɪ oʊ
-1.6692039	aɪ aɪ p
-1.2906291	aɪ aɪ s
-1.5846094	aɪ aɪ v
-1.3243426	aɪ aɪ w
-0.4346555	aɪ aɪ z
-1.7282695	aɪ aɪ ɔ
-1.5832747	aɪ aɪ ɚ
-1.6611575	aɪ aɪ ɪ
-1.681978	aɪ aɪ ɹ
-1.4003717	aɪ aɪ ʃ
-1.417316	aɪ aɪ θ
-0.3646972	aɪ aʊ t
-0.5133673	aɪ aʊ ɚ
-0.9964298	aɪ aʊ ɾ
-2.4356908	aɪ b </s>
-1.6723439	aɪ b aɪ
-1.9822404	aɪ b aʊ
-1.3274272	aɪ b d
-2.1006965	aɪ b eɪ
-1.9735112	aɪ b h
-1.2920387	aɪ b i
-1.9712446	aɪ b iə
-2.3466685	aɪ b j
-1.1717113	aɪ b l
-2.3961441	aɪ b o
-1.8020472	aɪ b oʊ
-2.1455773	aɪ b t
-2.1350906	aɪ b uː
-2.1489677	aɪ b w
-1.445225	aɪ b z
-1.2694594	aɪ b æ
-2.3735471	aɪ b ɑ
-1.8882999	aɪ b ɑː
-2.1280831	aɪ b ɔ
-1.586376	aɪ b ɔɪ
-2.13935	aɪ b ɔː
-0.758953	aɪ b ə
-2.00502	aɪ b ɚ
-0.9584905	aɪ b ɛ
-1.1688514	aɪ b ɪ
-0.8318609	aɪ b ɹ
-2.3686814	aɪ b ʊ
-1.2103347	aɪ b ʌ
-1.3917055	aɪ d </s>
-1.9568082	aɪ d aɪ
-1.9572093	aɪ d aʊ
-1.5917729	aɪ d b
-1.8803213	aɪ d d
-2.113034	aɪ d eɪ
-1.8562777	aɪ d f
-1.4963415	aɪ d h
-2.7155201	aɪ d i
-1.4042316	aɪ d iə
-2.2540078	aɪ d j
-1.9288846	aɪ d k
-1.645659	aɪ d l
-2.1734233	aɪ d m
-2.0927917	aɪ d n
-2.8437488	aɪ d o
-1.1252008	aɪ d oʊ
-2.1955452	aɪ d p
-1.652502	aɪ d s
-1.4720378	aɪ d t
-1.2282026	aɪ d uː
-3.1013034	aɪ d v
-1.3878951	aɪ d w
-1.3847763	aɪ d z
-1.3479315	aɪ d æ
-1.2550872	aɪ d ð
-2.5597296	aɪ d ɑ
-2.8246039	aɪ d ɑː
-2.1156849	aɪ d ɔ
-2.6917996	aɪ d ɔː
-1.126526	aɪ d ə
-2.0628821	aɪ d ɚ
-1.7028497	aɪ d ɛ
-2.1587961	aɪ d ɡ
-0.8308769	aɪ d ɪ
-1.709801	aɪ d ɹ
-2.6613803	aɪ d ʃ
-1.4681943	aɪ d ʌ
-1.419217	aɪ d ʒ
-2.6766741	aɪ d θ
-0.7037319	aɪ eɪ d
-0.2730593	aɪ eɪ n
-1.192172	aɪ f </s>
-1.5881232	aɪ f aɪ
-1.3569861	aɪ f aʊ
-1.5472634	aɪ f b
-1.9437735	aɪ f d
-1.3467755	aɪ f eɪ
-1.7664443	aɪ f f
-1.5138442	aɪ f h
-1.5004561	aɪ f i
-1.8278395	aɪ f j
-1.9404774	aɪ f k
-1.2068043	aɪ f l
-2.6863543	aɪ f m
-2.2331113	aɪ f n
-2.0790622	aɪ f o
-2.4118838	aɪ f p
-1.6059239	aɪ f s
-1.5929344	aɪ f t
-2.3906783	aɪ f uː
-2.7257452	aɪ f v
-1.2906094	aɪ f w
-1.9476836	aɪ f z
-0.9931768	aɪ f æ
-1.6301688	aɪ f ð
-2.6394844	aɪ f ɑ
-1.3316936	aɪ f ɑː
-1.6774116	aɪ f ɔ
-1.6283076	aɪ f ɔː
-1.6906554	aɪ f ə
-1.7290012	aɪ f ɚ
-1.4086804	aɪ f ɛ
-2.2430765	aɪ f ɡ
-1.1375032	aɪ f ɪ
-1.2353257	aɪ f ɹ
-2.6736314	aɪ f ʃ
-1.8568012	aɪ f ʊ
-1.6071773	aɪ f ʌ
-2.7094395	aɪ h aɪ
-1.9653079	aɪ h aʊ
-1.8246914	aɪ h eɪ
-1.5091034	aɪ h i
-2.780286	aɪ h iə
-2.2946575	aɪ h j
-1.1575141	aɪ h oʊ
-1.7574597	aɪ h uː
-0.2781885	aɪ h æ
-1.30455	aɪ h ɑ
-2.7461471	aɪ h ɔ
-2.7461471	aɪ h ɔː
-0.9764718	aɪ h ə
-1.4127963	aɪ h ɛ
-0.9883972	aɪ h ɪ
-1.6967135	aɪ h ʌ
-1.1399112	aɪ i b
-1.0890255	aɪ i k
-0.8222051	aɪ i t
-0.57972	aɪ i v
-1.1337486	aɪ i ð
-1.1628707	aɪ i ɡ
-1.2480258	aɪ j o
-0.3168968	aɪ j uː
-1.1783794	aɪ j ɛ
-1.4428621	aɪ j ʊ
-0.6331521	aɪ j ʊɹ
-0.9446277	aɪ j ʌ
-2.0011541	aɪ k </s>
-2.2823781	aɪ k aɪ
-2.1146113	aɪ k aʊ
-1.7729875	aɪ k b
-2.4308199	aɪ k d
-1.5762942	aɪ k eɪ
-2.0660273	aɪ k f
-1.6352916	aɪ k h
-2.7520926	aɪ k i
-1.6303781	aɪ k j
-2.2128049	aɪ k k
-1.2148879	aɪ k l
-1.8019631	aɪ k m
-2.5764947	aɪ k n
-2.5350108	aɪ k oʊ
-2.1406821	aɪ k p
-1.5986774	aɪ k s
-1.1417538	aɪ k t
-2.6194789	aɪ k v
-1.6037098	aɪ k w
-2.9168808	aɪ k z
-0.8100366	aɪ k æ
-1.0586048	aɪ k ð
-2.5847579	aɪ k ɑ
-1.6194806	aɪ k ɑː
-1.982566	aɪ k ɔ
-2.9128264	aɪ k ɔɪ
-2.8484336	aɪ k ɔː
-0.8126461	aɪ k ə
-2.7862937	aɪ k ɚ
-1.7942167	aɪ k ɛ
-2.6065296	aɪ k ɡ
-1.4305817	aɪ k ɪ
-1.7250241	aɪ k ɹ
-0.9720875	aɪ k ʊ
-1.5532996	aɪ k ʌ
-2.4432329	aɪ k θ
-1.7999209	aɪ l </s>
-1.1633355	aɪ l aɪ
-2.8636165	aɪ l aʊ
-1.7431835	aɪ l b
-0.6808514	aɪ l d
-1.7209407	aɪ l eɪ
-2.1087507	aɪ l f
-1.3550063	aɪ l h
-1.5320176	aɪ l i
-2.1016249	aɪ l j
-2.0340162	aɪ l k
-2.1032088	aɪ l l
-1.976772	aɪ l m
-2.1010719	aɪ l n
-2.1109259	aɪ l oʊ
-2.0359147	aɪ l p
-1.6437454	aɪ l s
-1.5977669	aɪ l t
-2.5553209	aɪ l uː
-1.7399059	aɪ l w
-1.4207856	aɪ l z
-1.4062292	aɪ l æ
-1.3117987	aɪ l ð
-2.9083424	aɪ l ɑ
-2.5962926	aɪ l ɑː
-1.7634009	aɪ l ɔ
-2.9339014	aɪ l ɔɪ
-1.680618	aɪ l ɔː
-0.907612	aɪ l ə
-1.4466675	aɪ l ɛ
-1.840619	aɪ l ɡ
-1.2442745	aɪ l ɪ
-2.3246224	aɪ l ɹ
-2.1760678	aɪ l ʃ
-2.0348966	aɪ l ʊ
-1.4831478	aɪ l ʌ
-2.4650736	aɪ l θ
-1.4381188	aɪ m </s>
-1.1410266	aɪ m aɪ
-2.2156123	aɪ m aʊ
-1.7925007	aɪ m b
-1.739514	aɪ m d
-1.2521837	aɪ m eɪ
-1.6971723	aɪ m f
-1.3884997	aɪ m h
-1.4160225	aɪ m i
-2.0202286	aɪ m j
-2.2255767	aɪ m k
-2.1324362	aɪ m l
-1.8900595	aɪ m m
-1.6334452	aɪ m n
-2.0891198	aɪ m oʊ
-1.9921205	aɪ m p
-1.7107949	aɪ m s
-1.3743695	aɪ m t
-2.8194715	aɪ m uː
-2.9266302	aɪ m v
-1.3756492	aɪ m w
-0.9160326	aɪ m z
-1.1643792	aɪ m æ
-1.4800944	aɪ m ð
-2.3989794	aɪ m ɑ
-2.5851807	aɪ m ɑː
-2.2029912	aɪ m ɔ
-2.8505131	aɪ m ɔː
-1.2875099	aɪ m ə
-1.8466542	aɪ m ɚ
-1.4526134	aɪ m ɛ
-1.5949851	aɪ m ɡ
-1.2540226	aɪ m ɪ
-2.1509525	aɪ m ɹ
-1.8941351	aɪ m ʃ
-1.1542323	aɪ m ʌ
-2.8309262	aɪ m θ
-1.5350964	aɪ n </s>
-1.9707099	aɪ n aɪ
-2.2306096	aɪ n aʊ
-2.1268235	aɪ n b
-0.3487933	aɪ n d
-1.7911728	aɪ n eɪ
-2.1193693	aɪ n f
-1.7575517	aɪ n h
-1.5575647	aɪ n i
-2.4709712	aɪ n j
-1.5342711	aɪ n l
-2.2919302	aɪ n m
-2.4788411	aɪ n n
-1.1256265	aɪ n oʊ
-2.183286	aɪ n p
-1.8145013	aɪ n s
-1.4620396	aɪ n t
-1.5278136	aɪ n uː
-1.6400938	aɪ n w
-1.4881792	aɪ n z
-1.7046752	aɪ n æ
-1.9314261	aɪ n ð
-1.6823826	aɪ n ɑː
-2.385864	aɪ n ɔ
-2.771468	aɪ n ɔː
-1.7906165	aɪ n ə
-2.3706582	aɪ n ɚ
-1.5990605	aɪ n ɛ
-1.377446	aɪ n ɪ
-2.5953291	aɪ n ɹ
-2.7402506	aɪ n ʃ
-1.758763	aɪ n ʌ
-2.3113218	aɪ n θ
-3.26e-05	aɪ o ɹ
-1.3319217	aɪ oʊ b
-1.4591539	aɪ oʊ d
-1.5274087	aɪ oʊ j
-1.6935888	aɪ oʊ k
-1.122591	aɪ oʊ l
-1.4249935	aɪ oʊ m
-0.3231637	aɪ oʊ n
-1.1134573	aɪ oʊ p
-1.1066981	aɪ oʊ v
-1.2390431	aɪ oʊ ŋ
-1.9679829	aɪ p </s>
-2.1568935	aɪ p aɪ
-1.5889523	aɪ p aʊ
-2.2703449	aɪ p d
-1.2776858	aɪ p eɪ
-1.9819934	aɪ p f
-1.3443586	aɪ p i
-2.2091736	aɪ p j
-1.8254565	aɪ p k
-1.0346483	aɪ p l
-1.9842239	aɪ p m
-1.9372166	aɪ p o
-2.0774311	aɪ p oʊ
-1.4731092	aɪ p s
-1.7440738	aɪ p t
-2.2137018	aɪ p w
-1.1221148	aɪ p æ
-2.1857899	aɪ p ð
-1.7583133	aɪ p ɑ
-1.2517522	aɪ p ɑː
-1.9624178	aɪ p ɔɪ
-0.9497032	aɪ p ə
-1.6619123	aɪ p ɚ
-1.6795118	aɪ p ɛ
-1.3087563	aɪ p ɪ
-0.8041225	aɪ p ɹ
-1.2903513	aɪ p ʊ
-1.5974961	aɪ p ʊɹ
-1.5045498	aɪ p ʌ
-1.9168155	aɪ s </s>
-1.6560552	aɪ s aɪ
-2.5821775	aɪ s aʊ
-1.8893976	aɪ s b
-2.817298	aɪ s d
-1.2863835	aɪ s eɪ
-2.2592609	aɪ s f
-2.0946976	aɪ s h
-1.2394222	aɪ s i
-2.5787235	aɪ s j
-1.7509523	aɪ s k
-1.529059	aɪ s l
-2.3452097	aɪ s m
-2.5512774	aɪ s n
-2.8809871	aɪ s o
-1.7266416	aɪ s oʊ
-1.5731181	aɪ s p
-2.3722774	aɪ s s
-1.0503829	aɪ s t
-2.3918337	aɪ s uː
-1.5475715	aɪ s w
-1.6249828	aɪ s æ
-1.9720707	aɪ s ð
-2.4101106	aɪ s ɑː
-1.195737	aɪ s ɔ
-2.4161924	aɪ s ɔː
-0.9587355	aɪ s ə
-2.1751433	aɪ s ɚ
-0.6498435	aɪ s ɛ
-2.4096991	aɪ s ɡ
-1.2065632	aɪ s ɪ
-2.4056046	aɪ s ɹ
-1.1069057	aɪ s ʌ
-2.885475	aɪ s θ
-1.298957	aɪ t </s>
-1.9019185	aɪ t aɪ
-2.3233344	aɪ t aʊ
-1.2991921	aɪ t b
-1.6155997	aɪ t d
-2.2902989	aɪ t eɪ
-1.4102381	aɪ t f
-1.1988913	aɪ t h
-2.1999351	aɪ t i
-2.1245984	aɪ t j
-1.6806274	aɪ t k
-1.4547318	aɪ t l
-1.4995162	aɪ t m
-1.695098	aɪ t n
-2.6831866	aɪ t o
-1.6428548	aɪ t oʊ
-1.5949383	aɪ t p
-1.120956	aɪ t s
-1.4630049	aɪ t t
-2.3616249	aɪ t uː
-2.5704583	aɪ t v
-1.2159815	aɪ t w
-1.1821788	aɪ t æ
-1.5897838	aɪ t ð
-3.1288681	aɪ t ɑ
-2.5552724	aɪ t ɑː
-1.9619383	aɪ t ɔ
-3.1738937	aɪ t ɔɪ
-2.569025	aɪ t ɔː
-1.1253378	aɪ t ə
-2.6791185	aɪ t ɚ
-1.7303002	aɪ t ɛ
-2.1293128	aɪ t ɡ
-1.435802	aɪ t ɪ
-1.4157466	aɪ t ɹ
-1.4597946	aɪ t ʃ
-1.876847	aɪ t ʊ
-1.2109283	aɪ t ʌ
-2.3931277	aɪ t θ
-1.7309598	aɪ v </s>
-2.5604302	aɪ v aʊ
-1.5716194	aɪ v b
-1.0473979	aɪ v d
-2.2653296	aɪ v eɪ
-1.9062903	aɪ v f
-1.3277381	aɪ v h
-1.9983311	aɪ v i
-1.6610964	aɪ v j
-2.080679	aɪ v k
-1.052069	aɪ v l
-1.4345267	aɪ v m
-1.7064716	aɪ v n
-2.1416959	aɪ v oʊ
-1.9042206	aɪ v p
-1.4397132	aɪ v s
-1.6606676	aɪ v t
-1.5765345	aɪ v w
-1.1572001	aɪ v z
-1.2860854	aɪ v æ
-1.5817765	aɪ v ð
-2.5760164	aɪ v ɑː
-2.5364393	aɪ v ɔ
-2.5396706	aɪ v ɔɪ
-2.1616041	aɪ v ɔː
-0.9998228	aɪ v ə
-1.0052785	aɪ v ɚ
-1.6097731	aɪ v ɛ
-1.5501851	aɪ v ɡ
-1.1713866	aɪ v ɪ
-2.1605046	aɪ v ɹ
-2.0063308	aɪ v ʌ
-2.1492199	aɪ v θ
-1.8893105	aɪ w aɪ
-1.5528073	aɪ w eɪ
-1.8320515	aɪ w i
-1.7313758	aɪ w oʊ
-2.2923196	aɪ w uː
-1.9219284	aɪ w ɑː
-1.1471249	aɪ w ɔ
-2.7019987	aɪ w ɔː
-1.2682694	aɪ w ə
-1.1768713	aɪ w ɛ
-0.6126715	aɪ w ɪ
-1.0062774	aɪ w ʊ
-0.4292946	aɪ w ʌ
-1.1472652	aɪ z </s>
-2.1778131	aɪ z aɪ
-1.4841697	aɪ z b
-0.8772485	aɪ z d
-2.7075871	aɪ z eɪ
-1.3769067	aɪ z f
-1.3642648	aɪ z h
-2.2149124	aɪ z i
-2.1042897	aɪ z j
-2.2752813	aɪ z k
-1.7998905	aɪ z l
-1.567179	aɪ z m
-2.0218882	aɪ z n
-2.3692663	aɪ z oʊ
-1.9769929	aɪ z p
-1.6101775	aɪ z s
-1.1807571	aɪ z t
-2.3938534	aɪ z v
-1.3129174	aɪ z w
-1.0355891	aɪ z æ
-1.2795732	aɪ z ð
-2.3961592	aɪ z ɑ
-2.6864597	aɪ z ɑː
-1.7182038	aɪ z ɔ
-2.4220146	aɪ z ɔː
-1.1505184	aɪ z ə
-1.7820192	aɪ z ɚ
-2.5637696	aɪ z ɛ
-1.9353914	aɪ z ɡ
-0.9619066	aɪ z ɪ
-1.9241077	aɪ z ɹ
-1.9396418	aɪ z ʃ
-1.5025956	aɪ z ʌ
-1.8432605	aɪ æ d
-2.4246608	aɪ æ f
-2.147274	aɪ æ k
-1.8982537	aɪ æ l
-0.2325009	aɪ æ m
-0.6120417	aɪ æ n
-1.1037477	aɪ æ s
-1.8562739	aɪ æ t
-1.7012616	aɪ æ z
-2.0205125	aɪ æ ŋ
-2.2093884	aɪ æ ɡ
-2.4815868	aɪ ð aɪ
-2.4393198	aɪ ð aʊ
-1.8507429	aɪ ð eɪ
-1.9989886	aɪ ð i
-1.6435298	aɪ ð oʊ
-1.1505181	aɪ ð æ
-0.2526463	aɪ ð ə
-0.9398785	aɪ ð ɛ
-0.7257161	aɪ ð ɪ
-2.4940511	aɪ ð ɹ
-2.1877286	aɪ ð ʌ
-0.281981	aɪ ŋ k
-0.4137347	aɪ ŋ ɡ
-2.75e-05	aɪ ɑ ɹ
-0.8436039	aɪ ɑː b
-0.6899599	aɪ ɑː f
-0.4231974	aɪ ɑː n
-1.11393	aɪ ɑː ɹ
-0.9363903	aɪ ɔ f
-0.4210436	aɪ ɔ l
-0.8087796	aɪ ɔ n
-0.5703875	aɪ ɔ t
-1.266949	aɪ ɔ ɹ
-1.64e-05	aɪ ɔː ɹ
-2.2717197	aɪ ə </s>
-1.4372292	aɪ ə b
-1.4493963	aɪ ə d
-1.8169983	aɪ ə f
-2.1631648	aɪ ə h
-2.5366811	aɪ ə j
-1.3814117	aɪ ə k
-0.7752911	aɪ ə l
-1.3262199	aɪ ə m
-0.7240307	aɪ ə n
-1.2079326	aɪ ə p
-1.5742326	aɪ ə s
-0.8487881	aɪ ə t
-2.160095	aɪ ə v
-1.9258736	aɪ ə w
-2.3901721	aɪ ə z
-2.444726	aɪ ə ð
-1.8317462	aɪ ə ɡ
-1.7024917	aɪ ə ɹ
-0.8566597	aɪ ə ɾ
-1.8008459	aɪ ə ʃ
-2.2507844	aɪ ə θ
-1.3583566	aɪ ɚ </s>
-1.5709028	aɪ ɚ b
-0.611359	aɪ ɚ d
-1.5383547	aɪ ɚ f
-1.6780668	aɪ ɚ h
-2.3057405	aɪ ɚ j
-2.0983332	aɪ ɚ k
-1.2302452	aɪ ɚ l
-1.5382939	aɪ ɚ m
-1.3238392	aɪ ɚ n
-1.7656121	aɪ ɚ p
-1.518192	aɪ ɚ s
-1.335133	aɪ ɚ t
-2.547379	aɪ ɚ v
-1.5217517	aɪ ɚ w
-1.11845	aɪ ɚ z
-1.4996423	aɪ ɚ æ
-1.5387866	aɪ ɚ ð
-2.3329435	aɪ ɚ ŋ
-2.268213	aɪ ɚ ɡ
-0.6780502	aɪ ɚ ɹ
-2.5756275	aɪ ɚ ʃ
-1.6502287	aɪ ɛ d
-0.6248103	aɪ ɛ k
-0.8991768	aɪ ɛ l
-1.0227898	aɪ ɛ m
-0.6177494	aɪ ɛ n
-1.6794155	aɪ ɛ s
-0.8009232	aɪ ɛ v
-1.2872792	aɪ ɛ ŋ
-1.8332725	aɪ ɛ ɡ
-1.5689236	aɪ ɡ aɪ
-2.176219	aɪ ɡ aʊ
-1.0818011	aɪ ɡ eɪ
-1.5820165	aɪ ɡ l
-1.0632952	aɪ ɡ oʊ
-1.4337472	aɪ ɡ æ
-1.6528284	aɪ ɡ ɑ
-0.9618046	aɪ ɡ ɑː
-1.9727688	aɪ ɡ ə
-0.9623232	aɪ ɡ ɚ
-1.0495453	aɪ ɡ ɛ
-1.0724867	aɪ ɡ ɪ
-0.72516	aɪ ɡ ɹ
-1.11364	aɪ ɡ ʊ
-1.5457766	aɪ ɡ ʌ
-2.2077234	aɪ ɪ f
-1.7718961	aɪ ɪ l
-1.4422683	aɪ ɪ m
-0.8902467	aɪ ɪ n
-1.3201685	aɪ ɪ s
-1.0626783	aɪ ɪ t
-1.613415	aɪ ɪ z
-0.2416603	aɪ ɪ ŋ
-2.2650805	aɪ ɪ ɡ
-1.9343263	aɪ ɪ ɹ
-1.3430083	aɪ ɪ ɾ
-2.2333168	aɪ ɪ ʃ
-1.6503531	aɪ ɹ aɪ
-1.545251	aɪ ɹ eɪ
-0.8750194	aɪ ɹ i
-1.713719	aɪ ɹ iə
-0.9604868	aɪ ɹ oʊ
-1.3960916	aɪ ɹ uː
-1.3811829	aɪ ɹ æ
-1.3406845	aɪ ɹ ɑː
-1.8504973	aɪ ɹ ɔ
-0.4204549	aɪ ɹ ə
-1.2551224	aɪ ɹ ɛ
-1.2248484	aɪ ɹ ɪ
-1.6310858	aɪ ɹ ʌ
-1.0896584	aɪ ɾ i
-1.2003773	aɪ ɾ l
-0.4264897	aɪ ɾ ə
-1.008374	aɪ ɾ ɚ
-0.4258223	aɪ ɾ ɪ
-2.2397938	aɪ ɾ ʌ
-2.3050348	aɪ ʃ aʊ
-1.8139497	aɪ ʃ eɪ
-1.3066193	aɪ ʃ i
-1.3169787	aɪ ʃ oʊ
-0.4045189	aɪ ʃ æ
-1.7120725	aɪ ʃ ɑː
-1.8193329	aɪ ʃ ɛ
-1.764231	aɪ ʃ ɪ
-0.4053266	aɪ ʃ ʊ
-1.8245024	aɪ ʃ ʌ
-0.5636806	aɪ ʌ m
-0.6714773	aɪ ʌ n
-1.5497111	aɪ ʌ p
-1.5205699	aɪ ʌ s
-1.5927517	aɪ ʌ t
-0.5998898	aɪ ʌ v
-1.3881479	aɪ ʌ ð
-0.9393826	aɪ ʌ ŋ
-2.0526157	aɪ θ i
-1.4002967	aɪ θ æ
-0.4087717	aɪ θ ɔ
-1.6045336	aɪ θ ə
-0.3209741	aɪ θ ɪ
-1.3476479	aɪ θ ɹ
-8e-07	aʊ </s> <s>
-1.5593475	aʊ aɪ b
-1.2596101	aʊ aɪ d
-1.1036067	aʊ aɪ h
-1.0779122	aʊ aɪ k
-1.1967653	aʊ aɪ l
-0.9747916	aʊ aɪ m
-1.1468853	aʊ aɪ n
-1.2140501	aʊ aɪ s
-1.2777049	aʊ aɪ v
-0.9137885	aʊ aɪ w
-1.1387357	aʊ aɪ æ
-1.6038249	aʊ aɪ ɡ
-1.6006612	aʊ aɪ ɹ
-1.3179086	aʊ aɪ ʃ
-1.1575464	aʊ b aɪ
-1.0726825	aʊ b i
-1.5647144	aʊ b j
-1.2470954	aʊ b l
-1.1069397	aʊ b oʊ
-1.2065748	aʊ b æ
-0.9936756	aʊ b ɔɪ
-1.1220871	aʊ b ə
-1.0610764	aʊ b ɛ
-0.9719505	aʊ b ɪ
-1.3534357	aʊ b ɹ
-0.8016874	aʊ b ʌ
-1.6835777	aʊ d </s>
-1.9670116	aʊ d aɪ
-1.7998909	aʊ d d
-1.9253246	aʊ d f
-1.1399344	aʊ d h
-2.2483119	aʊ d j
-2.1720627	aʊ d k
-1.159322	aʊ d l
-1.9045535	aʊ d m
-2.0842148	aʊ d n
-1.6241959	aʊ d oʊ
-2.1975294	aʊ d p
-1.8656622	aʊ d s
-1.119051	aʊ d t
-1.6091742	aʊ d uː
-2.2967453	aʊ d v
-1.5035597	aʊ d w
-1.2196866	aʊ d z
-1.4497086	aʊ d æ
-1.5185021	aʊ d ð
-2.0151612	aʊ d ɑː
-1.8261519	aʊ d ɔ
-0.9858398	aʊ d ə
-1.1064683	aʊ d ɚ
-1.943803	aʊ d ɛ
-1.8348567	aʊ d ɡ
-1.0182887	aʊ d ɪ
-1.5784216	aʊ d ɹ
-2.2725617	aʊ d ʃ
-1.2151686	aʊ d ʌ
-1.6191287	aʊ d ʒ
-0.266475	aʊ eɪ m
-1.3880915	aʊ f aɪ
-1.4763617	aʊ f i
-1.4237869	aʊ f æ
-1.2741746	aʊ f ɑ
-1.0705056	aʊ f ɑː
-0.9465812	aʊ f ɔ
-1.2541749	aʊ f ɔː
-1.3736148	aʊ f ɚ
-0.9262821	aʊ f ɛ
-0.8929317	aʊ f ɪ
-0.952095	aʊ f ɹ
-1.2592125	aʊ f ʊ
-1.3395047	aʊ h aʊ
-0.9611323	aʊ h eɪ
-0.4921905	aʊ h i
-1.7483443	aʊ h oʊ
-0.7595334	aʊ h æ
-1.7938244	aʊ h ɑ
-1.0521029	aʊ h ə
-1.3395047	aʊ h ɛ
-0.8143706	aʊ h ɪ
-1.7983499	aʊ h ʌ
-0.57972	aʊ i v
-0.5713395	aʊ i z
-0.8819758	aʊ i ɡ
-0.105091	aʊ j uː
-1.292087	aʊ j ɛ
-1.3245598	aʊ j ʊ
-1.2526456	aʊ j ʊɹ
-1.3634434	aʊ j ʌ
-1.4395369	aʊ k aɪ
-1.3405267	aʊ k l
-1.3587287	aʊ k w
-0.4918109	aʊ k æ
-1.637344	aʊ k ɑː
-1.6808084	aʊ k ɔ
-0.9171221	aʊ k ə
-1.3641621	aʊ k ɹ
-0.8473878	aʊ k ʊ
-0.9375435	aʊ k ʌ
-1.4723732	aʊ l </s>
-1.5155544	aʊ l aɪ
-1.7157092	aʊ l b
-0.9661809	aʊ l d
-1.5878467	aʊ l eɪ
-1.6303672	aʊ l f
-1.1730238	aʊ l i
-1.6235625	aʊ l t
-1.7229894	aʊ l uː
-1.6947885	aʊ l w
-1.0961145	aʊ l z
-1.518553	aʊ l æ
-0.9612666	aʊ l ɔ
-1.795478	aʊ l ɔː
-1.3753354	aʊ l ə
-1.3620434	aʊ l ɛ
-0.7632861	aʊ l ɪ
-1.4809604	aʊ l ʊ
-1.413883	aʊ l ʌ
-0.9582369	aʊ m aɪ
-1.4561342	aʊ m eɪ
-1.1824813	aʊ m i
-1.7704598	aʊ m o
-1.8150793	aʊ m uː
-1.5229525	aʊ m ɑ
-1.850272	aʊ m ɔɪ
-0.608864	aʊ m ɛ
-0.7732126	aʊ m ɪ
-0.6587798	aʊ m ʌ
-1.6898023	aʊ n </s>
-2.586791	aʊ n aɪ
-2.5918615	aʊ n aʊ
-1.7098896	aʊ n b
-0.3567046	aʊ n d
-2.0940305	aʊ n f
-1.7749899	aʊ n h
-2.6908816	aʊ n i
-2.2955173	aʊ n l
-2.1917927	aʊ n m
-3.0557885	aʊ n n
-2.1208023	aʊ n oʊ
-2.7719443	aʊ n p
-1.2505576	aʊ n s
-0.643956	aʊ n t
-1.6878803	aʊ n w
-2.1755967	aʊ n z
-1.408649	aʊ n æ
-1.2779675	aʊ n ð
-2.831334	aʊ n ɑː
-1.9947762	aʊ n ɔ
-3.0697945	aʊ n ɔː
-1.8316935	aʊ n ə
-2.7148693	aʊ n ɛ
-1.5897966	aʊ n ɪ
-3.0494735	aʊ n ɹ
-2.354397	aʊ n ʌ
-2.4995762	aʊ n θ
-0.9307922	aʊ oʊ d
-0.6000871	aʊ oʊ l
-0.9369452	aʊ oʊ p
-0.6595401	aʊ oʊ v
-0.7498707	aʊ p l
-1.0587975	aʊ p ɛ
-0.2418453	aʊ p ɹ
-0.969977	aʊ s </s>
-2.2068768	aʊ s aɪ
-1.6388658	aʊ s b
-2.0996392	aʊ s d
-1.7752468	aʊ s eɪ
-1.9122407	aʊ s f
-1.314357	aʊ s h
-1.3885038	aʊ s i
-2.1174338	aʊ s j
-1.6526121	aʊ s k
-1.6816194	aʊ s l
-1.5095563	aʊ s m
-1.5968148	aʊ s oʊ
-1.711605	aʊ s p
-1.7121375	aʊ s s
-1.081966	aʊ s t
-2.3485308	aʊ s uː
-0.9835503	aʊ s w
-0.9800235	aʊ s æ
-1.3443647	aʊ s ð
-1.6382687	aʊ s ɔ
-2.4074695	aʊ s ɔː
-1.517116	aʊ s ə
-1.9179971	aʊ s ɚ
-1.3150916	aʊ s ɛ
-2.3912919	aʊ s ɡ
-1.2692622	aʊ s ɪ
-2.3812722	aʊ s ɹ
-2.4120526	aʊ s ʃ
-1.1909619	aʊ s ʌ
-1.3865488	aʊ t </s>
-2.0567497	aʊ t aɪ
-2.2375293	aʊ t aʊ
-1.515371	aʊ t b
-1.6850508	aʊ t d
-2.526281	aʊ t eɪ
-1.2885118	aʊ t f
-1.1410258	aʊ t h
-2.4402979	aʊ t i
-1.8541179	aʊ t j
-1.7408798	aʊ t k
-1.5370381	aʊ t l
-1.3540506	aʊ t m
-1.7820106	aʊ t n
-2.5689685	aʊ t oʊ
-1.9670393	aʊ t p
-1.0875458	aʊ t s
-1.22361	aʊ t t
-2.6904222	aʊ t uː
-2.77949	aʊ t v
-1.2951621	aʊ t w
-1.2783345	aʊ t æ
-0.9259652	aʊ t ð
-2.5992056	aʊ t ɑ
-3.0173042	aʊ t ɑː
-1.7610248	aʊ t ɔ
-2.6055554	aʊ t ɔː
-1.0809125	aʊ t ə
-1.5481327	aʊ t ɛ
-2.178808	aʊ t ɡ
-1.2048876	aʊ t ɪ
-1.7952266	aʊ t ɹ
-1.7099585	aʊ t ʃ
-2.7979264	aʊ t ʊ
-1.9838972	aʊ t ʌ
-2.0880894	aʊ t θ
-0.1643647	aʊ v ɛ
-1.258582	aʊ w aɪ
-1.3113435	aʊ w aʊ
-1.7352069	aʊ w eɪ
-0.9322663	aʊ w i
-1.5929041	aʊ w ɑː
-1.4617941	aʊ w ə
-0.7923428	aʊ w ɛ
-0.6253326	aʊ w ɪ
-1.1010983	aʊ w ʊ
-0.6674893	aʊ w ʌ
-1.8389913	aʊ z </s>
-1.9273762	aʊ z aɪ
-0.8669117	aʊ z d
-1.5900767	aʊ z h
-1.9733689	aʊ z j
-1.8545527	aʊ z n
-1.7863859	aʊ z w
-1.4532955	aʊ z æ
-1.5810287	aʊ z ð
-0.2149878	aʊ z ə
-1.7430419	aʊ z ɪ
-1.6990385	aʊ z ʃ
-1.8404852	aʊ z ʌ
-1.7858249	aʊ æ b
-1.6897393	aʊ æ k
-0.95483	aʊ æ l
-1.3015425	aʊ æ m
-0.31395	aʊ æ n
-1.2762433	aʊ æ s
-1.0817804	aʊ æ t
-0.9334486	aʊ æ z
-1.4650218	aʊ æ ɾ
-1.9105487	aʊ ð aɪ
-1.913662	aʊ ð d
-1.1949893	aʊ ð eɪ
-1.5960782	aʊ ð oʊ
-1.4457122	aʊ ð z
-0.5810259	aʊ ð æ
-0.4451188	aʊ ð ə
-0.8464403	aʊ ð ɛ
-1.1452426	aʊ ð ɪ
-0.112147	aʊ ŋ k
-0.8673755	aʊ ŋ ɡ
-8.3e-06	aʊ ɑ ɹ
-0.5499076	aʊ ɑː d
-0.5446824	aʊ ɑː l
-0.9245548	aʊ ɔ f
-0.3672024	aʊ ɔ l
-0.5067487	aʊ ɔ n
-1.1356733	aʊ ɔ ɹ
-0.9097685	aʊ ə b
-0.9643516	aʊ ə d
-1.2636897	aʊ ə f
-0.9917505	aʊ ə l
-1.2252416	aʊ ə m
-0.6050709	aʊ ə n
-1.458638	aʊ ə p
-1.0301059	aʊ ə s
-1.5239155	aʊ ə v
-1.5373091	aʊ ə w
-1.5170851	aʊ ə ɡ
-1.5193739	aʊ ə ɹ
-1.6457362	aʊ ɚ </s>
-1.3831556	aʊ ɚ b
-1.286621	aʊ ɚ d
-1.2293904	aʊ ɚ f
-1.1781652	aʊ ɚ h
-2.2943455	aʊ ɚ j
-1.4218186	aʊ ɚ k
-1.4212412	aʊ ɚ l
-1.5732941	aʊ ɚ m
-1.9134718	aʊ ɚ n
-1.2948052	aʊ ɚ p
-1.1005824	aʊ ɚ s
-1.3763989	aʊ ɚ t
-1.9327672	aʊ ɚ v
-1.5354266	aʊ ɚ w
-0.883622	aʊ ɚ z
-1.8510819	aʊ ɚ æ
-1.7282328	aʊ ɚ ð
-2.3095615	aʊ ɚ ɔː
-1.7774446	aʊ ɚ ɡ
-0.6427398	aʊ ɚ ɹ
-2.0030036	aʊ ɚ ʃ
-2.474305	aʊ ɚ θ
-1.6141681	aʊ ɛ k
-1.7822496	aʊ ɛ l
-1.8835797	aʊ ɛ m
-1.6113604	aʊ ɛ n
-0.0644344	aʊ ɛ v
-1.711451	aʊ ɛ ŋ
-1.9744509	aʊ ɛ ɡ
-1.1394643	aʊ ɡ eɪ
-1.0962073	aʊ ɡ l
-0.7002117	aʊ ɡ oʊ
-1.4680687	aʊ ɡ w
-1.1446501	aʊ ɡ æ
-1.4227029	aʊ ɡ ɑ
-1.3494863	aʊ ɡ ɑː
-1.4752359	aʊ ɡ ɔ
-1.1785166	aʊ ɡ ɛ
-1.1034032	aʊ ɡ ɪ
-0.8241263	aʊ ɡ ɹ
-1.3340269	aʊ ɡ ʊ
-1.4052229	aʊ ɪ d
-1.2586893	aʊ ɪ f
-0.674486	aʊ ɪ n
-0.5399974	aʊ ɪ t
-1.6968484	aʊ ɪ v
-1.0055181	aʊ ɪ z
-0.8493297	aʊ ɪ ŋ
-1.0371248	aʊ ɪ ɾ
-0.9475126	aʊ ɹ aɪ
-1.1093583	aʊ ɹ i
-1.2250105	aʊ ɹ oʊ
-1.193268	aʊ ɹ æ
-0.3645125	aʊ ɹ ə
-1.1592591	aʊ ɹ ɛ
-2.0201079	aʊ ɾ i
-0.0661227	aʊ ɾ ə
-1.2184274	aʊ ɾ ɚ
-1.173697	aʊ ɾ ɪ
-0.564088	aʊ ʃ i
-1.3094131	aʊ ʃ oʊ
-0.5448878	aʊ ʃ æ
-0.7204524	aʊ ʃ ʊ
-0.9293112	aʊ ʃ ʊɹ
-0.6772971	aʊ ʌ n
-0.9976912	aʊ ʌ s
-0.3758816	aʊ ʌ v
-1.0711908	aʊ ʌ ɾ
-1.135419	aʊ θ </s>
-1.8264328	aʊ θ b
-1.8137595	aʊ θ d
-1.3548448	aʊ θ f
-1.3621418	aʊ θ h
-1.2650949	aʊ θ k
-1.8116828	aʊ θ p
-1.7255228	aʊ θ s
-1.1601209	aʊ θ t
-1.2382802	aʊ θ w
-1.8621559	aʊ θ z
-0.8916185	aʊ θ æ
-1.3599398	aʊ θ ð
-1.4269187	aʊ θ ə
-1.8484131	aʊ θ ɡ
-0.8759386	aʊ θ ɪ
-1.2009562	aʊ θ ɹ
-0.9504072	aʊ θ ʌ
-2.4e-06	b </s> <s>
-1.7932466	b aɪ </s>
-2.4822803	b aɪ aɪ
-2.9650313	b aɪ aʊ
-1.6007347	b aɪ b
-1.4860633	b aɪ d
-1.646429	b aɪ f
-1.0529776	b aɪ h
-2.6678212	b aɪ i
-1.892785	b aɪ j
-1.741687	b aɪ k
-1.8507856	b aɪ l
-1.2831193	b aɪ m
-1.4671165	b aɪ n
-2.475391	b aɪ oʊ
-1.6234579	b aɪ p
-1.1618915	b aɪ s
-1.4453933	b aɪ t
-2.4882206	b aɪ v
-1.298048	b aɪ w
-2.6015145	b aɪ z
-1.5459419	b aɪ æ
-0.5791256	b aɪ ð
-2.9617118	b aɪ ɑː
-2.0659775	b aɪ ɔ
-2.6689432	b aɪ ɔː
-1.1301061	b aɪ ə
-2.4867411	b aɪ ɚ
-1.6920012	b aɪ ɛ
-1.7884863	b aɪ ɡ
-1.6224473	b aɪ ɪ
-1.787895	b aɪ ɹ
-2.1640254	b aɪ ɾ
-2.0439814	b aɪ ʃ
-2.0616547	b aɪ ʌ
-2.1734353	b aɪ θ
-1.6244943	b aʊ d
-2.6039209	b aʊ l
-1.2745975	b aʊ n
-0.0552904	b aʊ t
-2.0196318	b aʊ z
-2.5992735	b aʊ æ
-1.7937106	b aʊ ɚ
-2.1493025	b aʊ ɪ
-0.7223854	b b æ
-0.6499506	b b ɪ
-0.6419967	b b ʌ
-1.4739006	b d b
-1.7620467	b d f
-1.525248	b d h
-1.7771664	b d k
-1.8924575	b d m
-2.0965538	b d n
-2.1985151	b d oʊ
-2.0560074	b d s
-1.6158354	b d t
-1.4353224	b d uː
-1.7261765	b d w
-1.7310858	b d æ
-1.6685159	b d ð
-2.2498414	b d ɑː
-1.7324374	b d ə
-2.1170751	b d ɚ
-1.9225857	b d ɛ
-2.216413	b d ɡ
-1.4043569	b d ɪ
-1.8732936	b d ɹ
-1.750278	b d ʌ
-0.2199068	b d ʒ
-2.0330118	b eɪ </s>
-0.932206	b eɪ b
-0.7678549	b eɪ d
-1.9868036	b eɪ h
-1.2305703	b eɪ k
-1.0978477	b eɪ l
-1.7028215	b eɪ m
-1.5255092	b eɪ n
-2.1200951	b eɪ oʊ
-1.9765437	b eɪ p
-0.8557662	b eɪ s
-1.0906164	b eɪ t
-1.7211697	b eɪ w
-1.3685407	b eɪ z
-1.4080708	b eɪ æ
-1.4060973	b eɪ ð
-1.3934103	b eɪ ɪ
-1.5436073	b eɪ ɾ
-1.4945193	b eɪ ʃ
-2.0811302	b eɪ ʌ
-0.5733223	b f ɔ
-0.5245619	b f ɔː
-0.6475313	b h i
-0.9174771	b h uː
-0.9148627	b h æ
-1.2608474	b h ɔ
-1.2608474	b h ɔː
-0.6665655	b h ə
-1.2279487	b h ʌ
-1.858044	b i </s>
-2.4840083	b i aɪ
-3.1770623	b i aʊ
-1.514892	b i b
-1.2845707	b i d
-1.9973992	b i eɪ
-1.432577	b i f
-1.6138215	b i h
-2.2978239	b i i
-2.050392	b i j
-1.2710856	b i k
-1.6673199	b i l
-1.3810441	b i m
-1.3607558	b i n
-2.1577612	b i oʊ
-1.5375876	b i p
-1.0542402	b i s
-1.1694044	b i t
-1.9424339	b i v
-1.5966217	b i w
-2.171187	b i z
-1.6199682	b i æ
-1.4882231	b i ð
-3.1770623	b i ɑ
-3.1666204	b i ɑː
-1.8567587	b i ɔ
-3.1737722	b i ɔː
-1.1590256	b i ə
-3.1653326	b i ɚ
-1.6319824	b i ɛ
-1.5554582	b i ɡ
-0.7807763	b i ɪ
-1.5547799	b i ɹ
-2.5719759	b i ɾ
-1.9169786	b i ʃ
-1.8895681	b i ʌ
-2.4033758	b i θ
-1.40133	b iə </s>
-1.429223	b iə d
-1.4058562	b iə h
-1.1857438	b iə l
-1.3346742	b iə m
-0.5136886	b iə n
-1.1297615	b iə t
-0.9590459	b iə z
-1.4438714	b iə æ
-0.8209142	b iə ɹ
-0.0359218	b j uː
-1.2484492	b j ʊ
-1.7410461	b j ʊɹ
-0.2853172	b k eɪ
-1.4232317	b l </s>
-1.3813456	b l aɪ
-2.8064341	b l aʊ
-1.8678919	b l b
-1.3497322	b l d
-1.6486419	b l eɪ
-1.5901597	b l f
-1.8911288	b l h
-0.9988126	b l i
-2.2425255	b l j
-1.753668	b l k
-1.8758247	b l l
-1.673102	b l m
-2.1077868	b l n
-1.6146321	b l oʊ
-1.7542998	b l p
-1.462309	b l s
-1.1422871	b l t
-1.4650497	b l uː
-2.5262571	b l v
-1.6587437	b l w
-1.5818012	b l z
-0.9668627	b l æ
-1.8212213	b l ð
-2.663939	b l ɑ
-1.8312138	b l ɑː
-1.9885642	b l ɔ
-2.8230425	b l ɔː
-1.5615408	b l ə
-2.0671746	b l ɚ
-1.4289139	b l ɛ
-2.2989523	b l ɡ
-0.9947311	b l ɪ
-2.0346206	b l ɹ
-2.3729206	b l ʃ
-1.3015638	b l ʌ
-2.3058925	b l θ
-1.2196611	b m aɪ
-0.8284491	b m i
-1.2303832	b m æ
-0.2157243	b m ɪ
-0.6016809	b n o
-0.5930609	b n ɚ
-3.1e-06	b o ɹ
-1.3826106	b oʊ d
-1.7423256	b oʊ f
-1.6350611	b oʊ h
-1.043745	b oʊ l
-1.6588526	b oʊ m
-1.1873471	b oʊ n
-2.3541049	b oʊ oʊ
-2.1336438	b oʊ p
-1.7376737	b oʊ s
-0.7642653	b oʊ t
-1.6345965	b oʊ w
-1.3259603	b oʊ z
-1.7393605	b oʊ æ
-2.3205471	b oʊ ɔ
-2.2886988	b oʊ ə
-2.0895632	b oʊ ɪ
-2.2649339	b oʊ ʃ
-2.3168081	b oʊ ʌ
-0.3957204	b oʊ θ
-0.4706493	b p aɪ
-0.4165491	b p ɹ
-1.8094557	b s aɪ
-1.6221204	b s i
-1.1462007	b s k
-1.0497462	b s o
-1.9864067	b s p
-0.50593	b s t
-2.1452764	b s ɑː
-0.4093345	b s ə
-1.704477	b s ɛ
-1.5964963	b s ɪ
-1.9399441	b s ʌ
-1.2616267	b t aɪ
-0.2191147	b t eɪ
-0.8810152	b t ə
-1.220973	b t ɹ
-1.6081991	b uː b
-0.695136	b uː d
-1.6059469	b uː f
-1.5448587	b uː k
-1.2716048	b uː l
-0.9115364	b uː m
-1.1001057	b uː n
-0.5856382	b uː t
-1.3319968	b uː ɾ
-1.3468316	b uː θ
-0.0509893	b v iə
-1.0090677	b w i
-0.5075757	b w ɪ
-0.3165117	b w ʌ
-1.4846632	b z </s>
-1.9183968	b z aɪ
-1.4871584	b z d
-1.723355	b z h
-1.9882274	b z j
-1.8689715	b z k
-1.6552601	b z m
-1.6719768	b z p
-1.595452	b z s
-1.4791008	b z t
-1.3574566	b z w
-1.1601366	b z æ
-1.4390055	b z ð
-2.0194692	b z ɑ
-1.937028	b z ɔ
-0.4552246	b z ə
-1.0342511	b z ɚ
-1.5253283	b z ɪ
-1.9359717	b z ɹ
-1.9870391	b z ʃ
-1.1803394	b z ʌ
-2.0395318	b z θ
-2.2845016	b æ b
-1.0441547	b æ d
-1.7612776	b æ f
-0.3578971	b æ k
-1.3914613	b æ l
-2.2391734	b æ m
-0.967966	b æ n
-2.2487008	b æ p
-1.50396	b æ s
-1.7959308	b æ t
-2.1672768	b æ z
-1.1522103	b æ ŋ
-1.396408	b æ ɡ
-1.183954	b æ ɹ
-1.3567701	b æ ɾ
-2.4559773	b æ ʃ
-1.9963098	b æ θ
-1.0144662	b ð eɪ
-0.9138877	b ð æ
-0.2440914	b ð ə
-0.9244574	b ð ɛ
-1.8e-06	b ɑ ɹ
-1.5204466	b ɑː b
-0.3839307	b ɑː d
-1.7820732	b ɑː f
-0.8775731	b ɑː k
-1.6522968	b ɑː l
-1.7315432	b ɑː m
-0.9894595	b ɑː n
-1.9387843	b ɑː s
-1.7248431	b ɑː t
-1.3839604	b ɑː z
-1.7707132	b ɑː ð
-1.8771627	b ɑː ɡ
-1.4374611	b ɑː ɹ
-0.9399895	b ɑː ɾ
-2.1818073	b ɑː ʃ
-1.6816229	b ɔ k
-0.4141363	b ɔ l
-1.3954581	b ɔ n
-0.7606427	b ɔ s
-0.6758912	b ɔ t
-0.8370958	b ɔ ɹ
-1.0666451	b ɔɪ </s>
-1.9707807	b ɔɪ b
-1.4543789	b ɔɪ d
-1.7630166	b ɔɪ f
-1.0952473	b ɔɪ h
-1.9634344	b ɔɪ j
-1.6723354	b ɔɪ k
-0.7799761	b ɔɪ l
-2.1629692	b ɔɪ m
-1.4892343	b ɔɪ n
-1.2055689	b ɔɪ s
-1.9284587	b ɔɪ t
-2.2522848	b ɔɪ v
-1.1565314	b ɔɪ w
-0.6235384	b ɔɪ z
-1.9087501	b ɔɪ æ
-1.6164643	b ɔɪ ð
-2.2666871	b ɔɪ ɑ
-2.0987613	b ɔɪ ə
-1.9707807	b ɔɪ ɛ
-2.2522848	b ɔɪ ɡ
-1.3896826	b ɔɪ ɪ
-2.2383448	b ɔɪ ɹ
-1.9634344	b ɔɪ ʃ
-2.2248383	b ɔɪ ʌ
-1.9707807	b ɔɪ θ
-4.9e-06	b ɔː ɹ
-3.0406939	b ə </s>
-2.7737505	b ə aɪ
-1.4013324	b ə b
-1.2912643	b ə d
-0.6135575	b ə f
-1.0728727	b ə h
-1.582643	b ə j
-1.9547958	b ə k
-0.8033298	b ə l
-2.4309318	b ə m
-0.943526	b ə n
-2.7434735	b ə p
-1.0568945	b ə s
-0.9961832	b ə t
-1.8816225	b ə w
-2.5183287	b ə z
-2.9251133	b ə ð
-3.0742232	b ə ɔ
-1.5474597	b ə ɡ
-2.1339153	b ə ɹ
-3.0280092	b ə ɾ
-3.011378	b ə ʃ
-1.7105754	b ə θ
-1.3786824	b ɚ </s>
-2.162084	b ɚ b
-1.1355756	b ɚ d
-1.9254617	b ɚ f
-1.4034601	b ɚ h
-2.2513159	b ɚ j
-1.9334431	b ɚ k
-1.5220254	b ɚ l
-1.5593459	b ɚ m
-1.5591287	b ɚ n
-2.1968028	b ɚ p
-1.7945362	b ɚ s
-1.013686	b ɚ t
-2.4929545	b ɚ v
-1.6266761	b ɚ w
-0.8041739	b ɚ z
-1.5525195	b ɚ æ
-1.3910934	b ɚ ð
-2.2728655	b ɚ ɔː
-0.5106468	b ɚ ɹ
-1.5001176	b ɚ ɾ
-2.2495379	b ɚ ʃ
-0.80821	b ɛ d
-1.8835281	b ɛ k
-0.9916519	b ɛ l
-2.5655378	b ɛ m
-1.0171641	b ɛ n
-0.8572852	b ɛ s
-1.542701	b ɛ t
-2.4532394	b ɛ z
-1.1212774	b ɛ ɡ
-0.7257911	b ɛ ɹ
-0.7398234	b ɛ ɾ
-1.936539	b ɛ θ
-0.2728475	b ɡ l
-2.5631651	b ɪ b
-1.7802765	b ɪ d
-2.7914414	b ɪ f
-0.7946882	b ɪ k
-1.0852223	b ɪ l
-0.4377228	b ɪ n
-2.4436119	b ɪ s
-1.2491029	b ɪ t
-2.8029454	b ɪ v
-1.4037442	b ɪ z
-1.2989194	b ɪ ŋ
-2.45713	b ɪ ə
-0.7973115	b ɪ ɡ
-2.1462776	b ɪ ɹ
-1.5834101	b ɪ ɾ
-1.6481748	b ɪ ʃ
-1.1579311	b ɹ aɪ
-1.4680575	b ɹ aʊ
-0.9042899	b ɹ eɪ
-1.3092064	b ɹ i
-2.9083921	b ɹ iə
-2.8312872	b ɹ l
-1.1592413	b ɹ oʊ
-1.3098614	b ɹ uː
-1.3709448	b ɹ æ
-1.4523818	b ɹ ɑː
-0.9018466	b ɹ ɔ
-2.6427534	b ɹ ɔɪ
-1.9565871	b ɹ ə
-0.9567717	b ɹ ɛ
-0.7554889	b ɹ ɪ
-2.2488241	b ɹ ʊ
-1.0566584	b ɹ ʌ
-0.4904982	b ʃ i
-0.5710638	b ʃ ʊ
-0.2911426	b ʊ k
-0.765121	b ʊ l
-1.8972399	b ʊ t
-1.1007113	b ʊ z
-0.7244293	b ʊ ʃ
-0.3002411	b ʊɹ ʒ
-3.1156419	b ʌ b
-2.3450405	b ʌ d
-2.6907978	b ʌ f
-2.0495488	b ʌ k
-2.2374009	b ʌ l
-2.3747768	b ʌ m
-1.680864	b ʌ n
-2.8004859	b ʌ p
-2.1661255	b ʌ s
-0.0559757	b ʌ t
-1.3863268	b ʌ v
-2.1121267	b ʌ z
-2.8209827	b ʌ ŋ
-2.5907702	b ʌ ɡ
-2.4994627	b ʌ ɹ
-2.0521509	b ʌ ɾ
-0.2385581	b θ ɹ
-1e-07	d </s> <s>
-1.8647226	d aɪ </s>
-2.4551823	d aɪ aɪ
-1.6434247	d aɪ b
-0.9052851	d aɪ d
-1.6569879	d aɪ f
-1.1707706	d aɪ h
-2.7455352	d aɪ j
-1.3636176	d aɪ k
-1.3775415	d aɪ l
-1.4764015	d aɪ m
-1.0968584	d aɪ n
-2.4458821	d aɪ oʊ
-1.9695196	d aɪ p
-1.2109723	d aɪ s
-1.6464042	d aɪ t
-1.3628581	d aɪ v
-0.9552949	d aɪ w
-1.5407349	d aɪ z
-1.2752457	d aɪ æ
-2.019321	d aɪ ð
-2.7652875	d aɪ ɑː
-2.735986	d aɪ ɔ
-1.2474823	d aɪ ə
-2.0797307	d aɪ ɚ
-2.0639779	d aɪ ɛ
-1.9758724	d aɪ ɡ
-1.6168576	d aɪ ɪ
-1.8065531	d aɪ ɹ
-2.6220027	d aɪ ɾ
-1.4255278	d aɪ ʃ
-1.9868398	d aɪ ʌ
-1.6219849	d aɪ θ
-2.1053601	d aʊ d
-0.2491656	d aʊ n
-2.5691912	d aʊ s
-0.505459	d aʊ t
-1.9027345	d aʊ ŋ
-2.7193964	d aʊ ə
-1.2280287	d aʊ ɚ
-2.4263516	d aʊ ɪ
-2.736582	d aʊ ɹ
-1.5100965	d aʊ ɾ
-0.6805175	d b aɪ
-2.2114611	d b aʊ
-2.1022943	d b eɪ
-0.7076918	d b i
-3.1371093	d b iə
-2.3583338	d b j
-1.6156188	d b l
-2.2995114	d b o
-1.9373076	d b oʊ
-2.8363942	d b uː
-1.5717474	d b æ
-2.3622536	d b ɑ
-1.9608242	d b ɑː
-2.4444818	d b ɔ
-2.2330198	d b ɔɪ
-1.0758204	d b ə
-1.3382589	d b ɛ
-0.6605378	d b ɪ
-1.2297426	d b ɹ
-2.8168285	d b ʊ
-1.1400111	d b ʌ
-1.5047386	d d aɪ
-1.1637246	d d aʊ
-1.4089865	d d eɪ
-1.6481997	d d i
-2.5498412	d d j
-2.2798404	d d o
-2.0934153	d d oʊ
-1.139182	d d uː
-2.6452649	d d w
-2.0631913	d d æ
-1.9834532	d d ɑ
-1.4569689	d d ɑː
-2.0936752	d d ɔ
-2.5887012	d d ɔɪ
-1.0231819	d d ə
-1.3061426	d d ɛ
-0.717607	d d ɪ
-1.0933454	d d ɹ
-2.4085228	d d ʊɹ
-1.3394224	d d ʌ
-0.6899428	d d ʒ
-1.4018762	d eɪ </s>
-1.8625558	d eɪ aɪ
-2.4604464	d eɪ aʊ
-1.468474	d eɪ b
-1.7298295	d eɪ d
-1.7527665	d eɪ f
-1.6369892	d eɪ h
-2.1653417	d eɪ i
-2.4493613	d eɪ j
-1.6913727	d eɪ k
-1.292069	d eɪ l
-1.4353913	d eɪ m
-0.888936	d eɪ n
-2.4642052	d eɪ oʊ
-1.9471834	d eɪ p
-1.4551889	d eɪ s
-1.3236572	d eɪ t
-1.5082633	d eɪ v
-1.2812546	d eɪ w
-0.8304518	d eɪ z
-1.1335799	d eɪ æ
-1.4401051	d eɪ ð
-2.0568803	d eɪ ɔ
-2.1662913	d eɪ ɔː
-1.806409	d eɪ ə
-1.8572353	d eɪ ɡ
-1.3448955	d eɪ ɪ
-2.720512	d eɪ ɹ
-1.8008672	d eɪ ɾ
-1.5387196	d eɪ ʃ
-1.6192166	d eɪ ʌ
-2.6940867	d eɪ θ
-1.3517201	d f aɪ
-1.6055884	d f aʊ
-1.3786384	d f eɪ
-1.5144524	d f i
-2.2100156	d f j
-1.2115036	d f l
-1.7546758	d f o
-2.6242474	d f oʊ
-2.3412206	d f uː
-1.4250398	d f æ
-1.8359719	d f ɑ
-1.4552121	d f ɑː
-1.2161099	d f ɔ
-0.7987508	d f ɔː
-1.5377048	d f ə
-1.0504079	d f ɚ
-1.237508	d f ɛ
-1.1637241	d f ɪ
-0.698076	d f ɹ
-2.2334695	d f ʊ
-2.3374585	d f ʌ
-2.3513517	d h aɪ
-1.4832701	d h aʊ
-2.1469071	d h eɪ
-0.7183514	d h i
-2.9622456	d h iə
-2.1488033	d h j
-1.6688992	d h oʊ
-1.5607716	d h uː
-0.9754225	d h æ
-1.7434724	d h ɑ
-2.4809416	d h ɑː
-2.306981	d h ɔ
-2.4803587	d h ɔː
-0.6790242	d h ə
-3.2603773	d h ɚ
-1.5878742	d h ɛ
-0.4896681	d h ɪ
-2.6606509	d h ʊ
-2.0033774	d h ʌ
-1.6313888	d i </s>
-2.0971339	d i aɪ
-2.9304663	d i aʊ
-1.7827916	d i b
-0.9076717	d i d
-2.9072774	d i eɪ
-1.5742915	d i f
-1.5434684	d i h
-2.3275395	d i j
-1.6604883	d i k
-1.0414504	d i l
-1.53242	d i m
-1.6191156	d i n
-2.4602099	d i oʊ
-1.1036153	d i p
-1.3404767	d i s
-1.1035649	d i t
-1.2830506	d i v
-1.4324296	d i w
-1.139651	d i z
-1.3404312	d i æ
-1.7009998	d i ð
-2.9304663	d i ɑ
-1.8751905	d i ɑː
-2.4410196	d i ɔ
-2.2523957	d i ɔː
-1.5243411	d i ə
-2.6368607	d i ɚ
-1.7702036	d i ɛ
-1.8241379	d i ɡ
-1.5681827	d i ɪ
-2.0730571	d i ɹ
-2.5983461	d i ɾ
-1.6480655	d i ʃ
-1.9301334	d i ʌ
-2.2314292	d i θ
-1.9223902	d iə </s>
-2.2126639	d iə b
-1.9477544	d iə d
-1.9565493	d iə f
-1.926516	d iə h
-2.1969291	d iə k
-1.2533041	d iə l
-1.6145404	d iə m
-0.2787757	d iə n
-1.1454838	d iə s
-1.9223902	d iə t
-2.2289903	d iə w
-1.3577853	d iə z
-1.6637081	d iə ð
-1.7755288	d iə ŋ
-2.2636084	d iə ə
-1.7844032	d iə ɪ
-0.9075371	d iə ʌ
-2.5610577	d j eɪ
-1.8572505	d j i
-1.8504656	d j o
-0.1868234	d j uː
-1.7134779	d j ɑ
-0.8238598	d j ɛ
-1.6452718	d j ɪ
-1.5387273	d j ʊ
-1.0706763	d j ʊɹ
-1.9249463	d j ʌ
-2.0425557	d k aɪ
-1.8255014	d k aʊ
-1.479453	d k eɪ
-1.9747137	d k i
-2.189935	d k j
-1.1180469	d k l
-1.4522389	d k o
-1.8258863	d k oʊ
-2.3502262	d k uː
-1.1546651	d k w
-0.9004782	d k æ
-2.1287555	d k ɑ
-1.2607741	d k ɑː
-1.3833385	d k ɔ
-2.8298112	d k ɔɪ
-0.8633398	d k ə
-1.922437	d k ɚ
-1.3558458	d k ɛ
-1.4005552	d k ɪ
-1.0238953	d k ɹ
-1.5937393	d k ʊ
-0.8807789	d k ʌ
-2.0488202	d l </s>
-1.0412117	d l aɪ
-2.184957	d l aʊ
-1.9993346	d l b
-1.5733647	d l d
-1.2957663	d l eɪ
-2.486331	d l f
-2.1021566	d l h
-0.6138154	d l i
-2.8787366	d l j
-2.3292261	d l k
-2.2616232	d l l
-2.8756528	d l n
-1.9770945	d l oʊ
-2.332733	d l p
-2.0861132	d l s
-2.6443079	d l t
-1.6682384	d l uː
-2.1543813	d l w
-1.6617521	d l z
-1.2906342	d l æ
-2.40086	d l ð
-2.2706851	d l ɑ
-2.2550539	d l ɑː
-1.3918233	d l ɔ
-2.9522672	d l ɔɪ
-2.0687619	d l ɔː
-1.5553849	d l ə
-2.6048272	d l ɚ
-0.9688838	d l ɛ
-2.8813974	d l ɡ
-1.0500951	d l ɪ
-2.8529886	d l ɹ
-1.2139977	d l ʊ
-1.2718248	d l ʌ
-2.9219314	d l θ
-0.8354749	d m aɪ
-2.0205416	d m aʊ
-0.8662234	d m eɪ
-0.8065567	d m i
-2.4076363	d m j
-1.5591721	d m o
-1.7141992	d m oʊ
-2.5269677	d m uː
-1.0809072	d m æ
-1.5325508	d m ɑ
-2.0665556	d m ɑː
-2.0617545	d m ɔ
-1.8478481	d m ɔː
-1.58755	d m ə
-2.0182444	d m ɚ
-1.0883261	d m ɛ
-0.7871987	d m ɪ
-3.0250958	d m ʊɹ
-1.1694388	d m ʌ
-1.4771351	d n aɪ
-1.2906035	d n aʊ
-1.7655897	d n eɪ
-1.5509228	d n i
-0.9065018	d n oʊ
-1.2746195	d n t
-1.6310383	d n uː
-2.9000937	d n w
-1.8890481	d n æ
-3.0389783	d n ɑ
-0.363578	d n ɑː
-3.0113782	d n ɔ
-1.8158784	d n ɔː
-1.2792476	d n ə
-2.9730774	d n ɚ
-1.0874723	d n ɛ
-1.6349758	d n ɪ
-1.4199155	d n ʌ
-1.3e-06	d o ɹ
-1.7431486	d oʊ </s>
-2.5632565	d oʊ aɪ
-2.1414513	d oʊ b
-1.9943619	d oʊ d
-2.1811558	d oʊ f
-1.9582446	d oʊ h
-2.6964033	d oʊ i
-2.0941939	d oʊ j
-1.8030408	d oʊ k
-1.2452222	d oʊ l
-1.5188922	d oʊ m
-0.3222946	d oʊ n
-2.4038669	d oʊ oʊ
-1.4382606	d oʊ p
-1.4867988	d oʊ s
-1.7098966	d oʊ t
-1.0453629	d oʊ v
-1.776764	d oʊ w
-1.2914161	d oʊ z
-1.5037861	d oʊ æ
-1.9448157	d oʊ ð
-2.3760688	d oʊ ɔ
-1.9928464	d oʊ ə
-2.3894225	d oʊ ɚ
-1.7434168	d oʊ ɪ
-2.6308966	d oʊ ɹ
-2.5789549	d oʊ ɾ
-2.5546693	d oʊ ʃ
-2.0030714	d oʊ ʌ
-2.7083503	d oʊ ʒ
-2.329781	d oʊ θ
-2.1261657	d p aɪ
-1.6398493	d p aʊ
-1.1742609	d p eɪ
-1.4398404	d p i
-2.6829353	d p j
-1.0115387	d p l
-1.7090414	d p o
-2.2141417	d p oʊ
-1.1366567	d p æ
-1.5728101	d p ɑ
-1.2970825	d p ɑː
-2.2631386	d p ɔ
-2.0469897	d p ɔɪ
-1.248732	d p ə
-1.2287172	d p ɚ
-1.461282	d p ɛ
-1.1984786	d p ɪ
-0.6368574	d p ɹ
-1.0098743	d p ʊ
-2.2631386	d p ʊɹ
-1.6365654	d p ʌ
-1.6916156	d s aɪ
-3.1136134	d s aʊ
-2.8118396	d s d
-1.4618882	d s eɪ
-3.0256855	d s f
-1.0684321	d s i
-1.4158324	d s k
-1.5960699	d s l
-1.7418872	d s m
-2.0617366	d s n
-2.5410496	d s o
-0.9961837	d s oʊ
-1.3476054	d s p
-0.7592097	d s t
-1.7296632	d s uː
-1.7563254	d s w
-1.5477033	d s æ
-3.1345997	d s ɑ
-2.3625092	d s ɑː
-1.7278775	d s ɔ
-1.2613959	d s ə
-2.3494689	d s ɚ
-0.8878965	d s ɛ
-1.2155916	d s ɪ
-0.9850103	d s ʌ
-1.6950087	d t aɪ
-3.1698378	d t aʊ
-1.4185369	d t eɪ
-2.5760041	d t i
-2.5017558	d t o
-1.7721881	d t oʊ
-1.560244	d t uː
-1.9068387	d t w
-2.4545881	d t æ
-2.0274404	d t ɑː
-1.8043336	d t ɔ
-2.904217	d t ɔɪ
-0.2130529	d t ə
-1.4464117	d t ɛ
-1.7881077	d t ɪ
-1.3804027	d t ɹ
-1.2941513	d t ʃ
-1.1043322	d t ʊ
-2.7290884	d t ʊɹ
-2.1868107	d t ʌ
-1.4117744	d uː </s>
-1.6504464	d uː aɪ
-2.8370682	d uː aʊ
-1.6928432	d uː b
-1.8281883	d uː d
-1.7844464	d uː f
-2.1351142	d uː h
-2.8708829	d uː i
-1.0036045	d uː j
-1.121739	d uː k
-1.8856379	d uː l
-1.5826107	d uː m
-0.9535096	d uː n
-2.8370682	d uː oʊ
-1.9712456	d uː p
-0.9570387	d uː s
-1.6165945	d uː t
-2.4123648	d uː v
-1.1632575	d uː w
-1.8486245	d uː z
-1.550553	d uː æ
-1.4544696	d uː ð
-2.7366274	d uː ɑ
-2.8387838	d uː ɑː
-2.2640411	d uː ɔ
-2.5642164	d uː ɔː
-1.6838471	d uː ə
-2.852758	d uː ɚ
-1.6492226	d uː ɛ
-2.2456718	d uː ɡ
-0.931858	d uː ɪ
-2.1543131	d uː ɹ
-1.2764743	d uː ɾ
-2.4920067	d uː ʃ
-2.3737115	d uː ʌ
-2.0697077	d uː θ
-0.8444657	d v aɪ
-1.9757795	d v aʊ
-1.6761	d v eɪ
-2.2284202	d v i
-1.684981	d v oʊ
-0.5141243	d v æ
-2.2833142	d v ɑ
-1.5863566	d v ɔɪ
-1.2863392	d v ə
-1.4905749	d v ɚ
-0.5980085	d v ɛ
-1.0891251	d v ɪ
-2.2404311	d v ʌ
-1.4009403	d w aɪ
-1.6807832	d w eɪ
-1.2421672	d w i
-2.5505046	d w o
-3.1314446	d w oʊ
-2.3079928	d w uː
-2.3746086	d w æ
-2.8530899	d w ɑ
-1.9475218	d w ɑː
-1.419336	d w ɔ
-2.2401398	d w ɔː
-1.3336861	d w ə
-2.8256502	d w ɚ
-0.846129	d w ɛ
-0.4299239	d w ɪ
-1.3374204	d w ʊ
-0.6883704	d w ʌ
-1.0667279	d z </s>
-1.7078999	d z aɪ
-2.2476096	d z aʊ
-1.4760977	d z b
-1.768048	d z d
-2.919528	d z eɪ
-1.4894942	d z f
-1.192551	d z h
-2.3139486	d z i
-2.088807	d z j
-1.5584051	d z k
-2.0117037	d z l
-1.6130496	d z m
-1.8319561	d z n
-2.2253923	d z oʊ
-1.8140489	d z p
-1.4697317	d z s
-1.4856105	d z t
-2.4451467	d z v
-1.1046673	d z w
-0.9344649	d z æ
-0.9961097	d z ð
-2.0966823	d z ɑ
-2.1673416	d z ɑː
-1.7626058	d z ɔ
-2.343378	d z ɔː
-1.362438	d z ə
-2.4084821	d z ɛ
-2.220915	d z ɡ
-1.2197582	d z ɪ
-1.9732496	d z ɹ
-2.1518708	d z ʃ
-1.0241022	d z ʌ
-2.895846	d z θ
-3.0799937	d æ b
-1.8455428	d æ d
-1.344144	d æ f
-2.0660358	d æ k
-1.7447467	d æ l
-1.7094596	d æ m
-0.2477308	d æ n
-2.3991638	d æ p
-1.5899814	d æ s
-0.9659464	d æ t
-2.4694242	d æ v
-0.8557669	d æ z
-1.9756962	d æ ŋ
-2.4222673	d æ ɡ
-2.4922713	d æ ɹ
-1.6784097	d æ ɾ
-2.1730922	d æ ʃ
-2.646165	d æ θ
-2.7715706	d ð aɪ
-2.467277	d ð aʊ
-1.440966	d ð eɪ
-2.0954775	d ð i
-1.8194585	d ð oʊ
-0.8295194	d ð æ
-0.2959246	d ð ə
-0.7521039	d ð ɛ
-1.0043469	d ð ɪ
-2.2968463	d ð ʌ
-1.2e-06	d ɑ ɹ
-2.1120748	d ɑː </s>
-1.6597269	d ɑː b
-1.5585768	d ɑː d
-2.0551532	d ɑː f
-2.4059196	d ɑː h
-0.4330336	d ɑː k
-1.0874095	d ɑː l
-1.3332437	d ɑː m
-1.0915397	d ɑː n
-1.459264	d ɑː p
-1.308646	d ɑː s
-1.5695074	d ɑː t
-1.6152078	d ɑː v
-2.4071422	d ɑː w
-1.62158	d ɑː ŋ
-0.8693426	d ɑː ɡ
-1.5885649	d ɑː ɹ
-1.6760168	d ɑː ɾ
-2.3718837	d ɑː ʃ
-2.3947078	d ɔ </s>
-2.6738669	d ɔ b
-1.0115834	d ɔ f
-2.5366244	d ɔ k
-0.4339069	d ɔ l
-0.4700355	d ɔ n
-2.5308327	d ɔ s
-2.0107024	d ɔ t
-2.6244418	d ɔ z
-1.6655186	d ɔ ŋ
-1.3165498	d ɔ ɹ
-0.9982717	d ɔ ɾ
-0.0675467	d ɔɪ l
-2.9e-06	d ɔː ɹ
-2.6436638	d ə </s>
-3.0174392	d ə aɪ
-1.4323775	d ə b
-0.7563805	d ə d
-1.5031399	d ə f
-1.9283305	d ə h
-2.7813867	d ə j
-1.3445218	d ə k
-1.21743	d ə l
-1.2171422	d ə m
-0.6327862	d ə n
-1.2248655	d ə p
-0.9996813	d ə s
-1.7837226	d ə t
-1.247714	d ə v
-1.5773187	d ə w
-2.2452104	d ə z
-3.0101186	d ə æ
-3.0904572	d ə ð
-2.3781831	d ə ŋ
-3.4933431	d ə ɔ
-3.1900667	d ə ə
-3.0175221	d ə ɛ
-1.44248	d ə ɡ
-3.0163622	d ə ɪ
-1.6761455	d ə ɹ
-2.7835598	d ə ɾ
-2.4865628	d ə ʃ
-3.0170246	d ə ʌ
-2.4443799	d ə θ
-1.5959794	d ɚ </s>
-1.8583759	d ɚ b
-1.0554347	d ɚ d
-1.3667701	d ɚ f
-1.4742677	d ɚ h
-2.3766467	d ɚ j
-1.8052012	d ɚ k
-1.8042154	d ɚ l
-1.6613618	d ɚ m
-1.4827498	d ɚ n
-2.0667916	d ɚ p
-0.8683174	d ɚ s
-1.4144539	d ɚ t
-2.8929969	d ɚ v
-1.403116	d ɚ w
-0.9739971	d ɚ z
-1.4545341	d ɚ æ
-0.9930526	d ɚ ð
-2.9905919	d ɚ ŋ
-2.9897031	d ɚ ɔ
-2.9774476	d ɚ ɔː
-1.9796524	d ɚ ɡ
-2.3884932	d ɚ ɪ
-0.6662166	d ɚ ɹ
-2.2823679	d ɚ ʃ
-2.9588616	d ɚ θ
-2.5722116	d ɛ b
-1.023369	d ɛ d
-1.5948428	d ɛ f
-0.9667383	d ɛ k
-1.1464147	d ɛ l
-1.2870073	d ɛ m
-0.7879227	d ɛ n
-1.7871858	d ɛ p
-1.0975368	d ɛ s
-1.9365766	d ɛ t
-0.8776614	d ɛ v
-2.019132	d ɛ z
-2.088809	d ɛ ŋ
-1.6392826	d ɛ ɡ
-1.0873292	d ɛ ɹ
-2.5110719	d ɛ ɾ
-0.9323901	d ɛ θ
-2.0065828	d ɡ aɪ
-1.0353341	d ɡ eɪ
-1.2417243	d ɡ l
-2.0151017	d ɡ o
-1.0072289	d ɡ oʊ
-1.8270229	d ɡ w
-1.2136876	d ɡ æ
-1.6487433	d ɡ ɑ
-1.2475188	d ɡ ɑː
-1.0888552	d ɡ ɔ
-1.5561435	d ɡ ə
-1.0462121	d ɡ ɛ
-1.0916265	d ɡ ɪ
-0.6232645	d ɡ ɹ
-1.423788	d ɡ ʊ
-1.8185728	d ɡ ʌ
-3.5152551	d ɪ b
-0.8734186	d ɪ d
-3.0625913	d ɪ eɪ
-1.2594109	d ɪ f
-1.4130227	d ɪ k
-2.1301925	d ɪ l
-1.9118427	d ɪ m
-0.7044246	d ɪ n
-2.9333187	d ɪ oʊ
-2.5817551	d ɪ p
-0.8319669	d ɪ s
-0.9982967	d ɪ t
-1.8883127	d ɪ v
-1.3231107	d ɪ z
-3.5120322	d ɪ æ
-0.8829567	d ɪ ŋ
-3.0623632	d ɪ ɑː
-1.8281777	d ɪ ə
-3.533309	d ɪ ɚ
-1.9749322	d ɪ ɡ
-1.5215541	d ɪ ɹ
-1.5779325	d ɪ ɾ
-1.6146212	d ɪ ʃ
-2.5004635	d ɪ θ
-1.0191326	d ɹ aɪ
-1.6386932	d ɹ aʊ
-1.6166255	d ɹ eɪ
-1.2675125	d ɹ i
-2.2530879	d ɹ iə
-2.0900568	d ɹ l
-2.6230247	d ɹ o
-1.5295739	d ɹ oʊ
-1.2815772	d ɹ uː
-1.1368509	d ɹ æ
-1.1890355	d ɹ ɑː
-1.3030428	d ɹ ɔ
-2.7986274	d ɹ ɔɪ
-2.3245352	d ɹ ɔː
-0.7468423	d ɹ ə
-0.8947176	d ɹ ɛ
-0.790635	d ɹ ɪ
-3.1013814	d ɹ ʊ
-1.4231404	d ɹ ʌ
-2.086818	d ʃ aɪ
-1.6017266	d ʃ aʊ
-1.3581538	d ʃ eɪ
-0.2747029	d ʃ i
-2.4384854	d ʃ o
-1.1025386	d ʃ oʊ
-1.4167514	d ʃ æ
-1.9357737	d ʃ ɑ
-1.4888309	d ʃ ɑː
-1.6664448	d ʃ ɔː
-1.6495676	d ʃ ɛ
-1.1721771	d ʃ ɪ
-2.1281749	d ʃ ɹ
-1.2318919	d ʃ ʊ
-2.3754185	d ʃ ʊɹ
-1.8202362	d ʃ ʌ
-0.2888319	d ʊ ɹ
-1.1765629	d ʊɹ d
-1.6995597	d ʊɹ s
-1.4653781	d ʊɹ t
-1.8151584	d ʊɹ z
-1.7684778	d ʊɹ ð
-0.0991254	d ʊɹ ɹ
-1.6260809	d ʌ b
-2.5266588	d ʌ d
-1.4349272	d ʌ k
-1.6265799	d ʌ l
-2.2722052	d ʌ m
-0.7557038	d ʌ n
-0.9765568	d ʌ p
-1.236589	d ʌ s
-2.3213246	d ʌ t
-0.3841068	d ʌ v
-0.9549235	d ʌ z
-1.8959481	d ʌ ð
-1.8130036	d ʌ ŋ
-2.4179505	d ʌ ɡ
-2.4177067	d ʌ ɾ
-2.4097393	d ʌ θ
-1.7216473	d ʒ </s>
-2.213598	d ʒ aɪ
-2.0300287	d ʒ b
-1.2544995	d ʒ d
-1.6232158	d ʒ eɪ
-2.0010742	d ʒ f
-2.0452636	d ʒ h
-1.4133537	d ʒ i
-2.4130432	d ʒ iə
-2.4508004	d ʒ j
-2.3457971	d ʒ k
-1.9872901	d ʒ l
-1.6795924	d ʒ m
-2.4508004	d ʒ n
-2.8894753	d ʒ o
-1.8490227	d ʒ oʊ
-2.4130432	d ʒ p
-2.0153102	d ʒ s
-2.0300287	d ʒ t
-1.4115257	d ʒ uː
-3.1894735	d ʒ v
-1.7215645	d ʒ w
-1.4242648	d ʒ æ
-1.8490227	d ʒ ð
-3.0140698	d ʒ ɑ
-1.4968925	d ʒ ɑː
-2.0944639	d ʒ ɔ
-1.4061757	d ʒ ɔɪ
-2.0452636	d ʒ ɔː
-0.9630758	d ʒ ə
-1.1978566	d ʒ ɚ
-0.8461564	d ʒ ɛ
-2.7927719	d ʒ ɡ
-0.9700982	d ʒ ɪ
-2.4130432	d ʒ ɹ
-2.7137285	d ʒ ʃ
-2.7859985	d ʒ ʊɹ
-0.9522281	d ʒ ʌ
-2.7927719	d ʒ θ
-2.1897995	d θ aɪ
-1.6012069	d θ aʊ
-1.7017223	d θ i
-1.8999923	d θ p
-1.4122055	d θ æ
-2.219122	d θ ɑː
-0.8273899	d θ ɔ
-1.9203714	d θ ɔː
-1.2015419	d θ ə
-0.5713711	d θ ɪ
-0.4481981	d θ ɹ
-1.5871964	d θ ʌ
-4e-07	eɪ </s> <s>
-1.3181452	eɪ aɪ b
-1.1073545	eɪ aɪ d
-1.4776784	eɪ aɪ f
-1.0079632	eɪ aɪ h
-1.082976	eɪ aɪ k
-1.0791929	eɪ aɪ m
-1.1418081	eɪ aɪ n
-1.3966471	eɪ aɪ s
-1.2854096	eɪ aɪ v
-1.2503219	eɪ aɪ w
-1.4709039	eɪ aɪ z
-1.150914	eɪ aɪ æ
-1.6600267	eɪ aɪ ɔ
-1.3455631	eɪ aɪ ɡ
-1.6109564	eɪ aɪ ɹ
-1.3616886	eɪ aɪ ʌ
-0.1434216	eɪ aʊ t
-0.6924086	eɪ aʊ ɚ
-2.5661614	eɪ b </s>
-1.4566607	eɪ b aɪ
-2.2445415	eɪ b eɪ
-0.6905506	eɪ b i
-1.6729692	eɪ b iə
-2.5108642	eɪ b j
-0.4673349	eɪ b l
-1.9449753	eɪ b oʊ
-2.2488478	eɪ b z
-1.8158336	eɪ b æ
-2.5474736	eɪ b ɔ
-1.3091101	eɪ b ə
-0.8104913	eɪ b ɚ
-1.8143391	eɪ b ɛ
-1.4653612	eɪ b ɪ
-1.5707102	eɪ b ɹ
-1.1780508	eɪ b ʌ
-1.7965632	eɪ d </s>
-2.2068368	eɪ d aɪ
-1.832341	eɪ d aʊ
-2.0075076	eɪ d b
-1.8551919	eɪ d d
-2.365482	eɪ d eɪ
-1.7968192	eɪ d f
-1.2191138	eɪ d h
-0.7788894	eɪ d i
-2.3104117	eɪ d iə
-2.1021739	eɪ d j
-2.139645	eɪ d k
-2.5591007	eɪ d l
-1.443816	eɪ d m
-1.721001	eɪ d n
-2.0031169	eɪ d oʊ
-2.4733444	eɪ d p
-1.8098958	eɪ d s
-1.732221	eɪ d t
-1.993346	eɪ d uː
-2.6848232	eɪ d v
-1.6546968	eɪ d w
-2.1283476	eɪ d z
-1.5873856	eɪ d æ
-1.3395539	eɪ d ð
-2.9697474	eɪ d ɑ
-2.6734972	eɪ d ɑː
-1.9638514	eɪ d ɔ
-3.0026061	eɪ d ɔː
-0.9482172	eɪ d ə
-2.1813393	eɪ d ɚ
-1.7752637	eɪ d ɛ
-2.2914497	eɪ d ɡ
-1.2214573	eɪ d ɪ
-1.9019062	eɪ d ɹ
-2.9214442	eɪ d ʃ
-2.9981057	eɪ d ʊɹ
-1.3704226	eɪ d ʌ
-0.7451153	eɪ d ʒ
-0.435813	eɪ eɪ n
-0.4381738	eɪ eɪ t
-2.1174942	eɪ f </s>
-1.3684861	eɪ f aɪ
-1.8517789	eɪ f aʊ
-2.1718306	eɪ f b
-1.6539594	eɪ f eɪ
-1.7318399	eɪ f f
-2.0199557	eɪ f i
-2.01376	eɪ f j
-2.1856679	eɪ f k
-1.1650752	eɪ f l
-1.7551715	eɪ f o
-2.1525185	eɪ f s
-1.1555921	eɪ f t
-1.5926065	eɪ f w
-1.4515424	eɪ f æ
-1.6652648	eɪ f ɑː
-1.4603183	eɪ f ɔ
-0.9168666	eɪ f ɔː
-1.3088509	eɪ f ə
-1.3062448	eɪ f ɚ
-1.2594968	eɪ f ɛ
-1.6188638	eɪ f ɡ
-1.1468255	eɪ f ɪ
-0.6975553	eɪ f ɹ
-1.9587324	eɪ h aʊ
-2.0157296	eɪ h eɪ
-0.8475502	eɪ h i
-1.4162867	eɪ h oʊ
-1.6905309	eɪ h uː
-0.3326824	eɪ h æ
-2.3128717	eɪ h ɑː
-0.6778436	eɪ h ə
-1.6943602	eɪ h ɛ
-1.1230355	eɪ h ɪ
-1.0429929	eɪ i s
-0.649093	eɪ i v
-0.5233482	eɪ i z
-0.8203521	eɪ i ð
-0.1653404	eɪ j uː
-0.918051	eɪ j ɛ
-0.7443512	eɪ j ʊɹ
-1.6949609	eɪ k </s>
-2.3829247	eɪ k aɪ
-2.0056986	eɪ k aʊ
-2.1108486	eɪ k b
-2.1156041	eɪ k d
-1.8124174	eɪ k eɪ
-2.2305032	eɪ k f
-1.2224747	eɪ k h
-2.2866371	eɪ k i
-1.7767312	eɪ k j
-2.0634109	eɪ k k
-1.7864463	eɪ k l
-1.3505157	eɪ k m
-1.8150161	eɪ k n
-2.6366869	eɪ k oʊ
-1.9801872	eɪ k p
-1.1160054	eɪ k s
-1.7089058	eɪ k t
-2.7191001	eɪ k v
-1.8810066	eɪ k w
-3.0165985	eɪ k z
-1.5412166	eɪ k æ
-1.1187517	eɪ k ð
-2.6803883	eɪ k ɑː
-1.708197	eɪ k ɔ
-2.1685891	eɪ k ɔː
-0.6996462	eɪ k ə
-1.5880523	eɪ k ɚ
-1.8941632	eɪ k ɛ
-2.3191346	eɪ k ɡ
-0.7671071	eɪ k ɪ
-1.6863015	eɪ k ɹ
-2.4778965	eɪ k ʃ
-1.685423	eɪ k ʊ
-1.3577648	eɪ k ʌ
-3.0095186	eɪ k θ
-1.5182839	eɪ l </s>
-1.4139213	eɪ l aɪ
-1.8714855	eɪ l b
-0.9220735	eɪ l d
-1.9770777	eɪ l eɪ
-1.767104	eɪ l f
-1.5934091	eɪ l h
-1.1597232	eɪ l i
-1.831858	eɪ l iə
-2.5188625	eɪ l j
-1.7433679	eɪ l k
-1.9900019	eɪ l l
-1.5890672	eɪ l m
-2.1028622	eɪ l n
-2.4626695	eɪ l p
-2.0359875	eɪ l s
-1.6113845	eɪ l t
-1.4209432	eɪ l w
-0.9844534	eɪ l z
-1.3631554	eɪ l æ
-1.7861464	eɪ l ð
-2.565184	eɪ l ɑ
-1.7848974	eɪ l ɔ
-2.5888481	eɪ l ɔɪ
-2.2816418	eɪ l ɔː
-1.5534255	eɪ l ə
-1.3291267	eɪ l ɚ
-1.628828	eɪ l ɛ
-2.2650797	eɪ l ɡ
-0.9249379	eɪ l ɪ
-1.9801147	eɪ l ɹ
-2.2902906	eɪ l ʃ
-1.6895307	eɪ l ʊ
-1.1827728	eɪ l ʌ
-1.52878	eɪ m </s>
-1.5401053	eɪ m aɪ
-2.0038989	eɪ m aʊ
-1.2320578	eɪ m b
-0.9203974	eɪ m d
-1.721767	eɪ m eɪ
-1.4608947	eɪ m f
-1.4864995	eɪ m h
-1.8420241	eɪ m i
-2.3364508	eɪ m j
-2.1812729	eɪ m k
-1.5508724	eɪ m l
-1.7366342	eɪ m m
-1.8836563	eɪ m n
-2.0297811	eɪ m o
-2.0125594	eɪ m oʊ
-1.9344896	eɪ m p
-1.5417993	eɪ m s
-1.0444879	eɪ m t
-2.8492371	eɪ m uː
-2.3674599	eɪ m v
-1.4580971	eɪ m w
-1.3517317	eɪ m z
-1.2937365	eɪ m æ
-1.5435075	eɪ m ð
-2.5764707	eɪ m ɑ
-2.8680962	eɪ m ɑː
-1.9133097	eɪ m ɔ
-2.2540866	eɪ m ɔː
-1.187377	eɪ m ə
-2.4386274	eɪ m ɚ
-1.8028219	eɪ m ɛ
-2.638209	eɪ m ɡ
-1.1556886	eɪ m ɪ
-1.9660597	eɪ m ɹ
-2.3571232	eɪ m ʃ
-1.1656478	eɪ m ʌ
-2.2492789	eɪ m θ
-1.3906255	eɪ n </s>
-2.1230644	eɪ n aɪ
-2.5181782	eɪ n aʊ
-1.8626338	eɪ n b
-0.4752194	eɪ n d
-1.3913486	eɪ n f
-1.7714856	eɪ n h
-2.2861157	eɪ n i
-2.1411944	eɪ n iə
-2.2535766	eɪ n j
-1.8268571	eɪ n l
-1.9218332	eɪ n m
-2.7121526	eɪ n n
-1.7270461	eɪ n oʊ
-2.4223104	eɪ n p
-1.8924511	eɪ n s
-0.7328222	eɪ n t
-2.4228098	eɪ n uː
-2.9751561	eɪ n v
-1.6061155	eɪ n w
-1.3189766	eɪ n z
-1.388945	eɪ n æ
-1.5614499	eɪ n ð
-1.7679944	eɪ n ɑː
-2.5487507	eɪ n ɔ
-2.9962903	eɪ n ɔː
-1.8623273	eɪ n ə
-2.5228268	eɪ n ɚ
-2.066441	eɪ n ɛ
-1.3039489	eɪ n ɪ
-2.7080029	eɪ n ɹ
-2.6883552	eɪ n ʃ
-2.271492	eɪ n ʊɹ
-1.6362835	eɪ n ʌ
-2.994689	eɪ n θ
-0.7683843	eɪ oʊ d
-1.0611226	eɪ oʊ h
-0.8993038	eɪ oʊ l
-0.9016322	eɪ oʊ n
-0.6037202	eɪ oʊ v
-1.6884448	eɪ p </s>
-1.7581395	eɪ p aɪ
-1.9072884	eɪ p b
-2.3615922	eɪ p d
-1.7164544	eɪ p eɪ
-1.4450108	eɪ p f
-1.8986091	eɪ p h
-1.602566	eɪ p i
-2.3724205	eɪ p k
-1.2884568	eɪ p l
-1.9094856	eɪ p m
-2.3760908	eɪ p n
-1.8326768	eɪ p oʊ
-2.386347	eɪ p p
-1.5637763	eɪ p s
-1.0304621	eɪ p t
-1.7762801	eɪ p w
-1.1863206	eɪ p æ
-1.8808694	eɪ p ð
-2.1985623	eɪ p ɑ
-1.74467	eɪ p ɑː
-2.3232331	eɪ p ɔ
-2.3949223	eɪ p ɔː
-1.1231755	eɪ p ə
-0.5581154	eɪ p ɚ
-1.7676596	eɪ p ɛ
-1.5497251	eɪ p ɪ
-1.116728	eɪ p ɹ
-1.8531928	eɪ p ʊ
-1.7570305	eɪ p ʌ
-1.2147911	eɪ s </s>
-1.6798532	eɪ s aɪ
-2.2680382	eɪ s aʊ
-1.8180319	eɪ s b
-1.7402581	eɪ s d
-1.7533109	eɪ s eɪ
-1.4790147	eɪ s f
-1.5218925	eɪ s h
-1.4518797	eɪ s i
-2.1892379	eɪ s j
-1.6692718	eɪ s k
-1.8351388	eɪ s l
-1.9109288	eɪ s m
-2.3469526	eɪ s n
-1.7692529	eɪ s oʊ
-2.1001749	eɪ s p
-1.7355011	eɪ s s
-0.6871416	eɪ s t
-2.4623794	eɪ s uː
-2.959973	eɪ s v
-1.2451946	eɪ s w
-1.3032896	eɪ s æ
-1.3573798	eɪ s ð
-2.6470106	eɪ s ɑː
-1.8826427	eɪ s ɔ
-2.6557161	eɪ s ɔː
-0.9524266	eɪ s ə
-1.4759815	eɪ s ɛ
-2.1883513	eɪ s ɡ
-1.1562065	eɪ s ɪ
-2.1863123	eɪ s ɹ
-2.4878231	eɪ s ʃ
-1.2948414	eɪ s ʌ
-1.414054	eɪ t </s>
-2.0765565	eɪ t aɪ
-2.3119758	eɪ t aʊ
-1.6673778	eɪ t b
-1.4167881	eɪ t d
-2.7941948	eɪ t eɪ
-1.2009198	eɪ t f
-1.3580015	eɪ t h
-1.4625822	eɪ t i
-2.104942	eɪ t j
-1.6020265	eɪ t k
-1.6108396	eɪ t l
-1.5368757	eɪ t m
-1.9298546	eɪ t n
-2.1588027	eɪ t oʊ
-1.58786	eɪ t p
-0.9635349	eɪ t s
-1.4941181	eɪ t t
-2.2815659	eɪ t uː
-2.5396207	eɪ t v
-1.4967723	eɪ t w
-3.0229768	eɪ t z
-1.5448809	eɪ t æ
-1.3195597	eɪ t ð
-2.9772209	eɪ t ɑ
-2.5205716	eɪ t ɑː
-1.9657752	eɪ t ɔ
-2.1755017	eɪ t ɔː
-1.0002839	eɪ t ə
-1.7933811	eɪ t ɛ
-2.0162675	eɪ t ɡ
-1.5302348	eɪ t ɪ
-1.3927181	eɪ t ɹ
-1.1316415	eɪ t ʃ
-1.878866	eɪ t ʊ
-1.3540888	eɪ t ʌ
-2.1735277	eɪ t θ
-0.296413	eɪ uː ɡ
-1.629562	eɪ v </s>
-2.5968805	eɪ v aʊ
-1.8467314	eɪ v b
-0.9838207	eɪ v d
-2.5387627	eɪ v eɪ
-1.8683375	eɪ v f
-1.0906073	eɪ v h
-2.5301452	eɪ v i
-1.5949574	eɪ v iə
-1.5778006	eɪ v j
-1.4223949	eɪ v l
-1.1443136	eɪ v m
-1.9271274	eɪ v n
-2.6698406	eɪ v o
-2.3411893	eɪ v oʊ
-2.027204	eɪ v p
-2.0803387	eɪ v s
-1.7434703	eɪ v t
-1.5756634	eɪ v w
-1.5127151	eɪ v z
-1.5089067	eɪ v æ
-1.2094253	eɪ v ð
-2.1775226	eɪ v ɑː
-2.6639952	eɪ v ɔː
-1.2809455	eɪ v ə
-0.8622726	eɪ v ɚ
-1.8481986	eɪ v ɛ
-2.1482262	eɪ v ɡ
-0.9406336	eɪ v ɪ
-1.7740292	eɪ v ɹ
-1.5214779	eɪ v ʌ
-2.3519049	eɪ v θ
-1.9258368	eɪ w aɪ
-2.0662632	eɪ w eɪ
-1.3527678	eɪ w i
-2.4811094	eɪ w o
-2.4725045	eɪ w oʊ
-2.1646613	eɪ w ɑː
-1.6219799	eɪ w ɔ
-0.4228754	eɪ w ə
-2.4473698	eɪ w ɚ
-0.9650808	eɪ w ɛ
-0.7267411	eɪ w ɪ
-0.9273333	eɪ w ʊ
-0.9941166	eɪ w ʌ
-1.183575	eɪ z </s>
-2.4089751	eɪ z aɪ
-2.593747	eɪ z aʊ
-1.3548444	eɪ z b
-0.8939469	eɪ z d
-2.3180037	eɪ z eɪ
-1.3761184	eɪ z f
-1.5248474	eɪ z h
-1.769276	eɪ z i
-2.2645685	eɪ z j
-1.4925362	eɪ z k
-1.6044723	eɪ z l
-1.406762	eɪ z m
-1.718604	eɪ z n
-2.1093482	eɪ z oʊ
-1.7422865	eɪ z p
-1.3027036	eɪ z s
-1.5399776	eɪ z t
-1.4080353	eɪ z w
-1.2571319	eɪ z æ
-1.3795109	eɪ z ð
-2.5483662	eɪ z ɑ
-2.0202257	eɪ z ɑː
-1.9748764	eɪ z ɔ
-2.5978668	eɪ z ɔː
-1.15753	eɪ z ə
-2.3072721	eɪ z ɚ
-1.8951278	eɪ z ɛ
-1.7116796	eɪ z ɡ
-1.020055	eɪ z ɪ
-1.6550516	eɪ z ɹ
-2.1104697	eɪ z ʃ
-1.4219815	eɪ z ʌ
-2.305509	eɪ z θ
-1.0845307	eɪ æ f
-1.7734209	eɪ æ k
-2.0584108	eɪ æ l
-0.2242331	eɪ æ n
-1.264783	eɪ æ s
-0.9803179	eɪ æ t
-0.9718001	eɪ æ z
-1.7906114	eɪ æ ɾ
-2.1619815	eɪ ð d
-1.0470243	eɪ ð eɪ
-0.4817481	eɪ ð æ
-0.4203637	eɪ ð ə
-1.0319914	eɪ ð ɛ
-1.0634828	eɪ ð ɪ
-2.1581408	eɪ ð ʌ
-0.3769182	eɪ ŋ k
-0.4018358	eɪ ŋ ɡ
-2.9e-06	eɪ ɑ ɹ
-0.798127	eɪ ɑː n
-1.2923213	eɪ ɑː s
-0.2108523	eɪ ɑː ɹ
-1.3179887	eɪ ɑː ɾ
-1.6696782	eɪ ɔ f
-1.7236842	eɪ ɔ k
-0.2598064	eɪ ɔ l
-0.6261399	eɪ ɔ n
-1.1651371	eɪ ɔ t
-1.0658657	eɪ ɔ ɹ
-1.85e-05	eɪ ɔː ɹ
-1.4749453	eɪ ə b
-1.5485909	eɪ ə d
-1.3790336	eɪ ə f
-1.180534	eɪ ə k
-1.2523517	eɪ ə l
-1.0468551	eɪ ə m
-0.787826	eɪ ə n
-1.1845245	eɪ ə p
-1.2561334	eɪ ə s
-1.3623244	eɪ ə t
-1.4031666	eɪ ə v
-0.9366024	eɪ ə w
-1.7816683	eɪ ə z
-1.8309851	eɪ ə ð
-1.9316707	eɪ ə ŋ
-1.2933656	eɪ ə ɡ
-1.4681938	eɪ ə ɾ
-1.9050641	eɪ ə ʃ
-1.3563166	eɪ ə ʌ
-1.1209634	eɪ ɚ d
-1.4819534	eɪ ɚ m
-1.4811862	eɪ ɚ n
-1.1767976	eɪ ɚ s
-1.4173796	eɪ ɚ t
-1.416278	eɪ ɚ w
-1.3121114	eɪ ɚ z
-1.2383933	eɪ ɚ ɡ
-0.2803366	eɪ ɚ ɹ
-0.5802382	eɪ ɛ k
-0.9898552	eɪ ɛ m
-0.3250681	eɪ ɛ n
-1.3998163	eɪ ɛ v
-1.4682276	eɪ ɛ ɡ
-1.8933107	eɪ ɡ </s>
-1.8640365	eɪ ɡ aɪ
-1.3436345	eɪ ɡ eɪ
-1.9163429	eɪ ɡ f
-1.1318851	eɪ ɡ l
-0.9493388	eɪ ɡ oʊ
-1.5671633	eɪ ɡ w
-1.4814613	eɪ ɡ æ
-1.9116377	eɪ ɡ ð
-1.7503046	eɪ ɡ ɑ
-0.9802745	eɪ ɡ ɑː
-1.8249573	eɪ ɡ ɔ
-1.350008	eɪ ɡ ə
-1.6576447	eɪ ɡ ɚ
-1.2226553	eɪ ɡ ɛ
-1.2133424	eɪ ɡ ɪ
-0.616431	eɪ ɡ ɹ
-1.329015	eɪ ɡ ʊ
-1.76843	eɪ ɡ ʌ
-1.5772952	eɪ ɪ f
-1.8437387	eɪ ɪ k
-1.6359314	eɪ ɪ m
-0.6201651	eɪ ɪ n
-1.607027	eɪ ɪ s
-0.9271622	eɪ ɪ t
-1.5335304	eɪ ɪ z
-0.3334713	eɪ ɪ ŋ
-1.3556282	eɪ ɪ ɾ
-2.2994014	eɪ ɪ ʃ
-1.3247184	eɪ ɹ aɪ
-1.3956374	eɪ ɹ aʊ
-1.3291875	eɪ ɹ eɪ
-0.874938	eɪ ɹ i
-1.7014632	eɪ ɹ iə
-1.7228364	eɪ ɹ o
-1.19907	eɪ ɹ oʊ
-1.1748632	eɪ ɹ æ
-1.6333156	eɪ ɹ ɑː
-0.6394337	eɪ ɹ ə
-0.9662497	eɪ ɹ ɛ
-1.3389353	eɪ ɹ ɪ
-1.1620824	eɪ ɹ ʌ
-1.7560602	eɪ ɾ i
-1.7241657	eɪ ɾ l
-1.8132542	eɪ ɾ oʊ
-0.3711286	eɪ ɾ ə
-0.6198412	eɪ ɾ ɚ
-0.5498838	eɪ ɾ ɪ
-2.8245522	eɪ ʃ aʊ
-1.8476657	eɪ ʃ i
-2.7440841	eɪ ʃ l
-2.4893859	eɪ ʃ oʊ
-2.5049112	eɪ ʃ uː
-2.6038454	eɪ ʃ æ
-2.5194674	eɪ ʃ ɑː
-2.8171448	eɪ ʃ ɔː
-0.0302053	eɪ ʃ ə
-2.6117826	eɪ ʃ ɚ
-2.7353782	eɪ ʃ ɛ
-2.0799588	eɪ ʃ ɪ
-2.8147035	eɪ ʃ ɹ
-1.8326724	eɪ ʃ ʊ
-2.7545548	eɪ ʃ ʌ
-0.9290527	eɪ ʌ n
-1.1938065	eɪ ʌ p
-1.4591903	eɪ ʌ s
-0.1379364	eɪ ʌ v
-1.8013339	eɪ ʌ ʃ
-0.0238768	eɪ ʒ ə
-1.6300713	eɪ ʒ ɪ
-1.3657	eɪ θ </s>
-1.8643244	eɪ θ aɪ
-0.6748325	eɪ θ f
-1.397349	eɪ θ h
-1.8643244	eɪ θ k
-1.5724468	eɪ θ l
-1.8725914	eɪ θ m
-1.8482482	eɪ θ p
-1.5631387	eɪ θ t
-1.5392504	eɪ θ w
-1.0266259	eɪ θ æ
-1.3952585	eɪ θ ð
-1.3804254	eɪ θ ɔ
